{"learner":{"attributes":{"scikit_learn":"{\"_estimator_type\": \"classifier\"}"},"feature_names":["SpO2_min","SpO2_max","SpO2_mean","SpO2_std","SpO2_median","SpO2_skew","SpO2_kurtosis","SpO2_slope","SpO2_qr25","SpO2_qr75","HR_min","HR_max","HR_mean","HR_std","HR_median","HR_skew","HR_kurtosis","HR_slope","HR_qr25","HR_qr75","DBP_min","DBP_max","DBP_mean","DBP_std","DBP_median","DBP_skew","DBP_kurtosis","DBP_slope","DBP_qr25","DBP_qr75","MAP_min","MAP_max","MAP_mean","MAP_std","MAP_median","MAP_skew","MAP_kurtosis","MAP_slope","MAP_qr25","MAP_qr75","SBP_min","SBP_max","SBP_mean","SBP_std","SBP_median","SBP_skew","SBP_kurtosis","SBP_slope","SBP_qr25","SBP_qr75","RR_min","RR_max","RR_mean","RR_std","RR_median","RR_skew","RR_kurtosis","RR_slope","RR_qr25","RR_qr75","Temp_min","Temp_max","Temp_mean","Temp_std","Temp_median","Temp_skew","Temp_kurtosis","Temp_slope","Temp_qr25","Temp_qr75","LABMETC_count","LABCBCD_count","GLUCOSE_min","GLUCOSE_max","GLUCOSE_mean","GLUCOSE_std","GLUCOSE_median","GLUCOSE_slope","GLUCOSE_qr25","GLUCOSE_qr75","BLOOD UREA NITROGEN (BUN)_min","BLOOD UREA NITROGEN (BUN)_max","BLOOD UREA NITROGEN (BUN)_mean","BLOOD UREA NITROGEN (BUN)_std","BLOOD UREA NITROGEN (BUN)_median","BLOOD UREA NITROGEN (BUN)_slope","BLOOD UREA NITROGEN (BUN)_qr25","BLOOD UREA NITROGEN (BUN)_qr75","SODIUM_min","SODIUM_max","SODIUM_mean","SODIUM_std","SODIUM_median","SODIUM_slope","SODIUM_qr25","SODIUM_qr75","CALCIUM_min","CALCIUM_max","CALCIUM_mean","CALCIUM_std","CALCIUM_median","CALCIUM_slope","CALCIUM_qr25","CALCIUM_qr75","CHLORIDE_min","CHLORIDE_max","CHLORIDE_mean","CHLORIDE_std","CHLORIDE_median","CHLORIDE_qr25","CHLORIDE_qr75","CO2_min","CO2_max","CO2_mean","CO2_std","CO2_median","CO2_qr25","CO2_qr75","POTASSIUM_min","POTASSIUM_max","POTASSIUM_mean","POTASSIUM_std","POTASSIUM_median","POTASSIUM_qr25","POTASSIUM_qr75","CREATININE_min","CREATININE_max","CREATININE_mean","CREATININE_std","CREATININE_median","CREATININE_slope","CREATININE_qr25","CREATININE_qr75","ANION GAP_min","ANION GAP_max","ANION GAP_mean","ANION GAP_std","ANION GAP_median","ANION GAP_qr25","ANION GAP_qr75","PROTEIN, TOTAL_min","PROTEIN, TOTAL_max","PROTEIN, TOTAL_mean","PROTEIN, TOTAL_std","PROTEIN, TOTAL_median","PROTEIN, TOTAL_qr25","PROTEIN, TOTAL_qr75","GLOBULIN_min","GLOBULIN_max","GLOBULIN_mean","GLOBULIN_std","GLOBULIN_median","GLOBULIN_qr25","GLOBULIN_qr75","ALBUMIN_min","ALBUMIN_max","ALBUMIN_mean","ALBUMIN_std","ALBUMIN_median","ALBUMIN_qr25","ALBUMIN_qr75","BILIRUBIN, TOTAL_min","BILIRUBIN, TOTAL_max","BILIRUBIN, TOTAL_mean","BILIRUBIN, TOTAL_std","BILIRUBIN, TOTAL_median","BILIRUBIN, TOTAL_qr25","BILIRUBIN, TOTAL_qr75","ALT (SGPT)_min","ALT (SGPT)_max","ALT (SGPT)_mean","ALT (SGPT)_std","ALT (SGPT)_median","ALT (SGPT)_qr25","ALT (SGPT)_qr75","CORRECTED CALCIUM_min","CORRECTED CALCIUM_max","CORRECTED CALCIUM_mean","CORRECTED CALCIUM_std","CORRECTED CALCIUM_median","CORRECTED CALCIUM_qr25","CORRECTED CALCIUM_qr75","ALKALINE PHOSPHATASE_min","ALKALINE PHOSPHATASE_max","ALKALINE PHOSPHATASE_mean","ALKALINE PHOSPHATASE_std","ALKALINE PHOSPHATASE_median","ALKALINE PHOSPHATASE_qr25","ALKALINE PHOSPHATASE_qr75","AST (SGOT)_min","AST (SGOT)_max","AST (SGOT)_mean","AST (SGOT)_std","AST (SGOT)_median","AST (SGOT)_qr25","AST (SGOT)_qr75","EGFR REFIT WITHOUT RACE (2021)_min","EGFR REFIT WITHOUT RACE (2021)_max","EGFR REFIT WITHOUT RACE (2021)_mean","EGFR REFIT WITHOUT RACE (2021)_std","EGFR REFIT WITHOUT RACE (2021)_median","EGFR REFIT WITHOUT RACE (2021)_qr25","EGFR REFIT WITHOUT RACE (2021)_qr75","NUR194000_count","SARS-COV-2 RNA_min","SARS-COV-2 RNA_max","SARS-COV-2 RNA_mean","SARS-COV-2 RNA_std","SARS-COV-2 RNA_median","SARS-COV-2 RNA_qr25","SARS-COV-2 RNA_qr75","HEMOGLOBIN (HGB)_min","HEMOGLOBIN (HGB)_max","HEMOGLOBIN (HGB)_mean","HEMOGLOBIN (HGB)_std","HEMOGLOBIN (HGB)_median","HEMOGLOBIN (HGB)_qr25","HEMOGLOBIN (HGB)_qr75","Age","Gender_ind","Race_ind","Ethnicity_ind"],"feature_types":["float","float","float","float","float","float","float","float","float","float","float","float","float","float","float","float","float","float","float","float","float","float","float","float","float","float","float","float","float","float","float","float","float","float","float","float","float","float","float","float","float","float","float","float","float","float","float","float","float","float","float","float","float","float","float","float","float","float","float","float","float","float","float","float","float","float","float","float","float","float","float","float","float","float","float","float","float","float","float","float","float","float","float","float","float","float","float","float","float","float","float","float","float","float","float","float","float","float","float","float","float","float","float","float","float","float","float","float","float","float","float","float","float","float","float","float","float","float","float","float","float","float","float","float","float","float","float","float","float","float","float","float","float","float","float","float","float","float","float","float","float","float","float","float","float","float","float","float","float","float","float","float","float","float","float","float","float","float","float","float","float","float","float","float","float","float","float","float","float","float","float","float","float","float","float","float","float","float","float","float","float","float","float","float","float","float","float","float","float","float","float","float","float","float","float","float","float","float","float","float","float","float","float","float","float","float","float","float","float","float","float","float","float","float","float","float","float","float","float","float","float","float"],"gradient_booster":{"model":{"gbtree_model_param":{"num_parallel_tree":"1","num_trees":"100"},"iteration_indptr":[0,1,2,3,4,5,6,7,8,9,10,11,12,13,14,15,16,17,18,19,20,21,22,23,24,25,26,27,28,29,30,31,32,33,34,35,36,37,38,39,40,41,42,43,44,45,46,47,48,49,50,51,52,53,54,55,56,57,58,59,60,61,62,63,64,65,66,67,68,69,70,71,72,73,74,75,76,77,78,79,80,81,82,83,84,85,86,87,88,89,90,91,92,93,94,95,96,97,98,99,100],"tree_info":[0,0,0,0,0,0,0,0,0,0,0,0,0,0,0,0,0,0,0,0,0,0,0,0,0,0,0,0,0,0,0,0,0,0,0,0,0,0,0,0,0,0,0,0,0,0,0,0,0,0,0,0,0,0,0,0,0,0,0,0,0,0,0,0,0,0,0,0,0,0,0,0,0,0,0,0,0,0,0,0,0,0,0,0,0,0,0,0,0,0,0,0,0,0,0,0,0,0,0,0],"trees":[{"base_weights":[9.972131E-2,8.0940235E-1,-3.176871E-1,-1.90078E-1,9.003765E-1,-1.827581E0,4.0843945E-2,-1.8783046E-1,9.785756E-1,1.7740707E-1,-1.9926807E-1,8.9133143E-1,-5.1159096E-1,1.4029778E0,5.973618E-1,-1.8629266E-1,1.016246E0,-2.8712556E-1,-1.972937E-1,1.5099163E-1,-1.7809108E-1,-2.8446322E-2,1.2938944E-1,-1.7926274E-1,1.1022176E-1,-8.693292E-2,3.651179E-2],"categories":[],"categories_nodes":[],"categories_segments":[],"categories_sizes":[],"default_left":[0,0,0,0,0,0,0,0,0,0,0,0,0,0,0,0,0,0,0,0,0,0,0,0,0,0,0],"id":0,"left_children":[1,3,5,-1,7,9,11,-1,13,-1,-1,15,17,19,21,-1,23,25,-1,-1,-1,-1,-1,-1,-1,-1,-1],"loss_changes":[4.723727E2,1.4730783E2,5.437162E2,0E0,1.2613226E2,1.18135925E2,3.822089E2,0E0,8.9281006E1,0E0,0E0,1.12096146E2,1.6121538E2,9.217993E1,1.8167462E2,0E0,7.612656E1,1.6311325E2,0E0,0E0,0E0,0E0,0E0,0E0,0E0,0E0,0E0],"parents":[2147483647,0,0,1,1,2,2,4,4,5,5,6,6,8,8,11,11,12,12,13,13,14,14,16,16,17,17],"right_children":[2,4,6,-1,8,10,12,-1,14,-1,-1,16,18,20,22,-1,24,26,-1,-1,-1,-1,-1,-1,-1,-1,-1],"split_conditions":[9.317242E1,-4.7883663E0,7.7E-1,-1.90078E-1,-8.310378E-1,9.59E1,9.0333336E1,-1.8783046E-1,1.03E2,1.7740707E-1,-1.9926807E-1,4E-1,-2.7642944E-3,7.7E1,1.0649152E2,-1.8629266E-1,9.55E1,9.9E-1,-1.972937E-1,1.5099163E-1,-1.7809108E-1,-2.8446322E-2,1.2938944E-1,-1.7926274E-1,1.1022176E-1,-8.693292E-2,3.651179E-2],"split_indices":[0,5,125,0,45,60,31,0,40,0,0,161,7,22,19,0,44,125,0,0,0,0,0,0,0,0,0],"split_type":[0,0,0,0,0,0,0,0,0,0,0,0,0,0,0,0,0,0,0,0,0,0,0,0,0,0,0],"sum_hessian":[1.5927637E3,5.895193E2,1.0032444E3,1.8499943E1,5.7101935E2,1.9172577E2,8.115186E2,1.4999953E1,5.560194E2,7.976343E0,1.8374944E2,3.193137E2,4.9220493E2,2.618375E2,2.9418192E2,1.3249959E1,3.0606372E2,4.2770514E2,6.44998E1,2.5383751E2,7.999975E0,1.3008417E2,1.6409775E2,8.499973E0,2.9756375E2,2.2581024E2,2.018949E2],"tree_param":{"num_deleted":"0","num_feature":"222","num_nodes":"27","size_leaf_vector":"1"}},{"base_weights":[3.8813222E-2,7.2374445E-1,-3.0065855E-1,-1.0186582E0,8.415276E-1,-5.8720905E-1,6.451078E-1,1.6488779E-1,-1.8990336E-1,1.2336168E0,4.0915105E-1,-1.2196131E0,-6.148371E-2,-1.8839249E-1,8.7747043E-1,1.2909456E0,-1.6515374E-1,9.2003983E-1,-7.088748E-1,9.393208E-1,-1.360645E0,7.0769626E-1,-7.309745E-1,1.1165727E0,-8.4300494E-1,-1.5998058E-1,1.3403772E-1,-1.8144453E-1,1.1440759E-1,6.819692E-2,-1.9407344E-1,1.861497E-1,-1.6170847E-1,-1.768521E-1,-3.4367915E-2,9.516877E-2,-1.7639713E-1,-1.1127932E-1,1.1168758E-1,-1.7880054E-1,1.2343343E-1,1.6488779E-1,-1.8915962E-1],"categories":[],"categories_nodes":[],"categories_segments":[],"categories_sizes":[],"default_left":[0,0,0,0,0,0,0,0,0,0,0,0,0,0,0,0,0,0,0,0,0,0,0,0,0,0,0,0,0,0,0,0,0,0,0,0,0,0,0,0,0,0,0],"id":1,"left_children":[1,3,5,7,9,11,13,-1,-1,15,17,19,21,-1,23,25,-1,27,29,31,33,35,37,39,41,-1,-1,-1,-1,-1,-1,-1,-1,-1,-1,-1,-1,-1,-1,-1,-1,-1,-1],"loss_changes":[3.698412E2,1.0902942E2,2.8862186E2,8.257074E1,8.328763E1,2.714859E2,1.4726913E2,0E0,0E0,4.4923462E1,1.3576724E2,1.1415637E2,2.307399E2,0E0,9.457886E1,3.8472534E1,0E0,1.0180797E2,1.2940517E2,5.799604E1,1.4390802E2,1.2745037E2,1.70232E2,7.071234E1,7.718056E1,0E0,0E0,0E0,0E0,0E0,0E0,0E0,0E0,0E0,0E0,0E0,0E0,0E0,0E0,0E0,0E0,0E0,0E0],"parents":[2147483647,0,0,1,1,2,2,3,3,4,4,5,5,6,6,9,9,10,10,11,11,12,12,14,14,15,15,17,17,18,18,19,19,20,20,21,21,22,22,23,23,24,24],"right_children":[2,4,6,8,10,12,14,-1,-1,16,18,20,22,-1,24,26,-1,28,30,32,34,36,38,40,42,-1,-1,-1,-1,-1,-1,-1,-1,-1,-1,-1,-1,-1,-1,-1,-1,-1,-1],"split_conditions":[6.3E1,-8.5753036E-1,1.6557496E0,8.878715E1,8.2666664E1,9.3E1,2.0724138E1,1.6488779E-1,-1.8990336E-1,2.0500495E0,9.2E0,1.9E1,8.8583336E1,-1.8839249E-1,4E0,1E1,-1.6515374E-1,1.1E1,1.07E1,8E0,4.3E0,1.12E2,1.3320427E2,8.6E0,1.8E0,-1.5998058E-1,1.3403772E-1,-1.8144453E-1,1.1440759E-1,6.819692E-2,-1.9407344E-1,1.861497E-1,-1.6170847E-1,-1.768521E-1,-3.4367915E-2,9.516877E-2,-1.7639713E-1,-1.1127932E-1,1.1168758E-1,-1.7880054E-1,1.2343343E-1,1.6488779E-1,-1.8915962E-1],"split_indices":[197,56,3,4,38,10,51,0,0,15,97,112,32,0,154,133,0,133,211,80,118,196,19,211,147,0,0,0,0,0,0,0,0,0,0,0,0,0,0,0,0,0,0],"split_type":[0,0,0,0,0,0,0,0,0,0,0,0,0,0,0,0,0,0,0,0,0,0,0,0,0,0,0,0,0,0,0,0,0,0,0,0,0,0,0,0,0,0,0],"sum_hessian":[1.5886776E3,5.260888E2,1.0625889E3,3.282658E1,4.9326224E2,8.1579614E2,2.4679271E2,7.928951E0,2.4897629E1,2.5771088E2,2.3555138E2,3.6972626E2,4.460699E2,2.0168732E1,2.2662398E2,2.5323164E2,4.479229E0,1.6179517E2,7.375621E1,2.2324224E1,3.4740204E2,2.0755373E2,2.3851616E2,1.9928012E2,2.7343859E1,3.7301188E0,2.4950153E2,1.1714479E1,1.5008067E2,3.4852272E1,3.890394E1,1.6605814E1,5.718411E0,2.4742708E2,9.9974945E1,1.8946553E2,1.808819E1,1.9800124E2,4.0514923E1,7.2120605E0,1.9206805E2,7.928951E0,1.941491E1],"tree_param":{"num_deleted":"0","num_feature":"222","num_nodes":"43","size_leaf_vector":"1"}},{"base_weights":[4.4247814E-2,-2.7858198E-1,8.7335694E-1,4.826257E-1,-6.3540006E-1,3.2753834E-1,1.2161373E0,-5.101899E-1,8.8892615E-1,-9.75415E-1,2.4550684E-1,7.209078E-1,-1.8814717E-1,-1.7866866E-1,1.3269846E0,8.996759E-1,-1.1021973E0,1.0890332E0,-1.8873876E-1,1.6983607E-1,-1.2033094E0,-1.2857803E0,7.7432024E-1,1.0302141E0,-1.7609869E-1,-1.5968071E-1,1.3822676E0,-1.7839633E-1,1.6327006E-1,8.3759554E-2,-1.9095509E-1,-1.6638637E-1,1.2070053E-1,1.4664733E-1,-7.109607E-2,-1.3142912E-1,9.361976E-2,1.6077031E-1,-1.8079023E-1,-1.7500912E-1,9.959196E-2,-5.6256365E-2,1.355292E-1,1.434865E-1,-1.5287435E-1],"categories":[],"categories_nodes":[],"categories_segments":[],"categories_sizes":[],"default_left":[0,0,0,0,0,0,0,0,0,0,0,0,0,0,0,0,0,0,0,0,0,0,0,0,0,0,0,0,0,0,0,0,0,0,0,0,0,0,0,0,0,0,0,0,0],"id":2,"left_children":[1,3,5,7,9,11,13,15,17,19,21,23,-1,-1,25,27,29,31,-1,33,35,37,39,41,-1,-1,43,-1,-1,-1,-1,-1,-1,-1,-1,-1,-1,-1,-1,-1,-1,-1,-1,-1,-1],"loss_changes":[4.1317865E2,3.0211096E2,8.053882E1,1.4373227E2,2.2696603E2,1.4755373E2,9.0694824E1,8.7614235E1,1.4228494E2,1.4280151E2,1.7234653E2,1.1200193E2,0E0,0E0,4.3663513E1,6.437111E1,1.1677192E2,7.867734E1,0E0,1.0560244E2,1.09459656E2,8.5534966E1,9.008026E1,6.717308E1,0E0,0E0,4.0817017E1,0E0,0E0,0E0,0E0,0E0,0E0,0E0,0E0,0E0,0E0,0E0,0E0,0E0,0E0,0E0,0E0,0E0,0E0],"parents":[2147483647,0,0,1,1,2,2,3,3,4,4,5,5,6,6,7,7,8,8,9,9,10,10,11,11,14,14,15,15,16,16,17,17,19,19,20,20,21,21,22,22,23,23,26,26],"right_children":[2,4,6,8,10,12,14,16,18,20,22,24,-1,-1,26,28,30,32,-1,34,36,38,40,42,-1,-1,44,-1,-1,-1,-1,-1,-1,-1,-1,-1,-1,-1,-1,-1,-1,-1,-1,-1,-1],"split_conditions":[1.6557496E0,6.25E1,9.8333336E1,2.9E1,1.04E2,5.501756E-1,1.3E1,8.4E1,-8.263861E-1,1.33E2,4.4E1,1.31E1,-1.8814717E-1,-1.7866866E-1,8.3E0,9.5E0,8.4E0,1.1E1,-1.8873876E-1,3.5E1,1.5173076E1,4.1E1,-4.5775315E-3,2.5056167E0,-1.7609869E-1,-1.5968071E-1,9.974171E-2,-1.7839633E-1,1.6327006E-1,8.3759554E-2,-1.9095509E-1,-1.6638637E-1,1.2070053E-1,1.4664733E-1,-7.109607E-2,-1.3142912E-1,9.361976E-2,1.6077031E-1,-1.8079023E-1,-1.7500912E-1,9.959196E-2,-5.6256365E-2,1.355292E-1,1.434865E-1,-1.5287435E-1],"split_indices":[3,202,62,189,10,15,50,31,36,89,218,212,0,0,211,96,96,133,0,218,13,21,7,53,0,0,5,0,0,0,0,0,0,0,0,0,0,0,0,0,0,0,0,0,0],"split_type":[0,0,0,0,0,0,0,0,0,0,0,0,0,0,0,0,0,0,0,0,0,0,0,0,0,0,0,0,0,0,0,0,0,0,0,0,0,0,0,0,0,0,0,0,0],"sum_hessian":[1.5417542E3,1.110157E3,4.3159723E2,3.541942E2,7.5596277E2,1.672446E2,2.6435263E2,1.0278303E2,2.5141118E2,5.45357E2,2.1060573E2,1.4253613E2,2.4708471E1,8.872788E0,2.5547986E2,3.0241997E1,7.254102E1,2.350755E2,1.6335684E1,9.05526E1,4.548044E2,5.3693577E1,1.5691216E2,1.27261116E2,1.5275015E1,4.2235084E0,2.5125635E2,6.1806464E0,2.4061352E1,2.1307932E1,5.1233093E1,9.121436E0,2.2595407E2,3.636058E1,5.419202E1,4.327426E2,2.2061789E1,7.889969E0,4.5803608E1,1.2105974E1,1.4480617E2,2.1447021E1,1.05814095E2,2.472952E2,3.9611516E0],"tree_param":{"num_deleted":"0","num_feature":"222","num_nodes":"45","size_leaf_vector":"1"}},{"base_weights":[8.6013764E-2,-3.1792995E-1,6.5741235E-1,-6.609687E-1,4.1624793E-1,1.1848655E0,3.877086E-1,-8.1954736E-1,1.3994666E0,5.918727E-1,-1.6897236E-1,1.2611575E0,-1.6259827E-1,6.001923E-1,-8.985057E-1,-5.86623E-1,-1.7235412E-1,1.6311523E0,-1.2711897E-1,7.134378E-1,-1.6645578E-1,1.3265959E0,-1.608701E-1,-1.6906223E-1,7.1884495E-1,-1.783251E-1,1.279324E0,9.771404E-2,-7.490814E-2,-9.221571E-2,1.7305766E-1,8.221503E-2,-1.763077E-1,-1.4910232E-1,1.3742785E-1,-1.7538613E-1,8.014994E-2,-1.121735E-1,1.5941583E-1],"categories":[],"categories_nodes":[],"categories_segments":[],"categories_sizes":[],"default_left":[0,0,0,0,0,0,0,0,0,0,0,0,0,0,0,0,0,0,0,0,0,0,0,0,0,0,0,0,0,0,0,0,0,0,0,0,0,0,0],"id":3,"left_children":[1,3,5,7,9,11,13,15,17,19,-1,21,-1,23,25,27,-1,29,-1,31,-1,33,-1,-1,35,-1,37,-1,-1,-1,-1,-1,-1,-1,-1,-1,-1,-1,-1],"loss_changes":[3.5677966E2,2.283805E2,9.0603546E1,2.029671E2,1.0790372E2,4.839038E1,1.1670314E2,1.19886475E2,2.9614594E1,7.457172E1,0E0,4.1749237E1,0E0,1.0052954E2,1.1916731E2,1.1709802E2,0E0,1.2104576E1,0E0,6.998239E1,0E0,2.9831604E1,0E0,0E0,7.254816E1,0E0,1.5475967E1,0E0,0E0,0E0,0E0,0E0,0E0,0E0,0E0,0E0,0E0,0E0,0E0],"parents":[2147483647,0,0,1,1,2,2,3,3,4,4,5,5,6,6,7,7,8,8,9,9,11,11,13,13,14,14,15,15,17,17,19,19,21,21,24,24,26,26],"right_children":[2,4,6,8,10,12,14,16,18,20,-1,22,-1,24,26,28,-1,30,-1,32,-1,34,-1,-1,36,-1,38,-1,-1,-1,-1,-1,-1,-1,-1,-1,-1,-1,-1],"split_conditions":[2E1,1.07E2,8.1E1,8.881784E-16,4.3E0,9.487646E-1,-7.8663796E-1,3.5714322E-1,1.25E1,1.484E2,-1.6897236E-1,1.2175E2,-1.6259827E-1,-8.5494506E-1,2.1511625E1,3.1E0,-1.7235412E-1,8.6E1,-1.2711897E-1,5.6413645E-1,-1.6645578E-1,2.2E0,-1.608701E-1,-1.6906223E-1,7E1,-1.783251E-1,1.9691191E0,9.771404E-2,-7.490814E-2,-9.221571E-2,1.7305766E-1,8.221503E-2,-1.763077E-1,-1.4910232E-1,1.3742785E-1,-1.7538613E-1,8.014994E-2,-1.121735E-1,1.5941583E-1],"split_indices":[80,14,39,121,155,45,46,15,139,42,0,49,0,17,23,155,0,12,0,25,0,147,0,0,21,0,16,0,0,0,0,0,0,0,0,0,0,0,0],"split_type":[0,0,0,0,0,0,0,0,0,0,0,0,0,0,0,0,0,0,0,0,0,0,0,0,0,0,0,0,0,0,0,0,0,0,0,0,0,0,0],"sum_hessian":[1.5438473E3,9.047138E2,6.3913354E2,6.166764E2,2.8803745E2,2.1509135E2,4.2404214E2,5.731657E2,4.351067E1,2.665295E2,2.150793E1,2.0994438E2,5.146982E0,3.6437967E2,5.9662483E1,4.5705038E2,1.1611533E2,4.03955E1,3.115171E0,2.5355316E2,1.2976342E1,2.0578972E2,4.154663E0,1.7291222E1,3.4708844E2,4.2555466E1,1.7107018E1,4.254203E1,4.1450836E2,1.2038771E0,3.9191624E1,2.4353082E2,1.0022345E1,2.9208982E0,2.0286882E2,1.057276E1,3.365157E2,1.685992E0,1.5421024E1],"tree_param":{"num_deleted":"0","num_feature":"222","num_nodes":"39","size_leaf_vector":"1"}},{"base_weights":[4.4362232E-2,7.7047163E-1,-2.4092166E-1,8.362609E-1,-1.5989265E-1,-4.8754412E-1,5.798157E-1,-1.561384E-1,8.948809E-1,-1.3253587E0,-1.4525227E-1,7.521798E-1,-1.7119092E-1,9.381046E-1,-1.5416197E-1,-1.5309782E0,5.0242853E-1,5.4398346E-1,-6.647546E-1,8.6783665E-1,-1.6379237E-1,1.2497236E-1,6.526589E-2,-1.6610293E-1,7.7462055E-2,1.4925148E-1,-1.4850943E-1,7.267084E-2,-1.6158961E-1,1.3076597E-1,-7.7637576E-2,1.0247945E-1,-6.0049277E-2],"categories":[],"categories_nodes":[],"categories_segments":[],"categories_sizes":[],"default_left":[0,0,0,0,0,0,0,0,0,0,0,0,0,0,0,0,0,0,0,0,0,0,0,0,0,0,0,0,0,0,0,0,0],"id":4,"left_children":[1,3,5,7,-1,9,11,-1,13,15,17,19,-1,21,-1,23,25,27,29,31,-1,-1,-1,-1,-1,-1,-1,-1,-1,-1,-1,-1,-1],"loss_changes":[3.1168887E2,6.7494446E1,2.1896236E2,5.9528595E1,0E0,2.3820038E2,1.0007395E2,0E0,4.4031647E1,9.134091E1,2.1207903E2,6.5909164E1,0E0,3.4581055E1,0E0,6.631412E1,5.1652428E1,1.0168738E2,7.534462E1,5.2048904E1,0E0,0E0,0E0,0E0,0E0,0E0,0E0,0E0,0E0,0E0,0E0,0E0,0E0],"parents":[2147483647,0,0,1,1,2,2,3,3,5,5,6,6,8,8,9,9,10,10,11,11,13,13,15,15,16,16,17,17,18,18,19,19],"right_children":[2,4,6,8,-1,10,12,-1,14,16,18,20,-1,22,-1,24,26,28,30,32,-1,-1,-1,-1,-1,-1,-1,-1,-1,-1,-1,-1,-1],"split_conditions":[5.1E1,1.68E2,1.6780316E0,-8.0360174E-1,-1.5989265E-1,1.18E2,1.1617484E1,-1.561384E-1,2E-1,1.14E2,1.28E2,2.0333333E0,-1.7119092E-1,1.03E2,-1.5416197E-1,1.06E2,8.4E0,9.055556E1,-7E-1,7.475E0,-1.6379237E-1,1.2497236E-1,6.526589E-2,-1.6610293E-1,7.7462055E-2,1.4925148E-1,-1.4850943E-1,7.267084E-2,-1.6158961E-1,1.3076597E-1,-7.7637576E-2,1.0247945E-1,-6.0049277E-2],"split_indices":[201,49,3,45,0,79,33,0,57,189,41,37,0,40,0,28,215,32,93,146,0,0,0,0,0,0,0,0,0,0,0,0,0],"split_type":[0,0,0,0,0,0,0,0,0,0,0,0,0,0,0,0,0,0,0,0,0,0,0,0,0,0,0,0,0,0,0,0,0],"sum_hessian":[1.5027765E3,4.2340872E2,1.0793677E3,4.1259943E2,1.0809285E1,8.302829E2,2.4908482E2,9.235079E0,4.0336435E2,2.399919E2,5.90291E2,2.3228603E2,1.67988E1,3.9693762E2,6.426729E0,2.1586972E2,2.4122183E1,2.5368033E2,3.366107E2,2.2217204E2,1.0113979E1,1.8815361E2,2.0878401E2,2.0460803E2,1.1261688E1,1.6267548E1,7.854636E0,2.3450487E2,1.9175468E1,1.7454987E1,3.191557E2,2.0098926E2,2.1182777E1],"tree_param":{"num_deleted":"0","num_feature":"222","num_nodes":"33","size_leaf_vector":"1"}},{"base_weights":[7.927153E-3,-8.3831054E-1,2.2796774E-1,-1.121442E0,1.2262652E0,6.164297E-1,-2.1473166E-1,-1.21777795E-1,-1.4847887E0,1.6043274E-1,-1.377126E-1,6.668615E-2,8.42711E-1,-5.614515E-1,9.007263E-1,6.2339926E-1,-1.5880515E-1,7.178096E-1,-1.6250978E-1,3.8745737E-1,-1.7197272E-1,-9.1264737E-1,9.583896E-1,-6.9101816E-1,1.4948067E-1,-1.6952606E-1,1.1967117E0,1.2755391E-1,-1.6377597E-1,1.6061027E-1,-1.2291645E-1,-1.588863E-1,6.0937066E-2,-1.7559752E-1,1.3178806E-1,1.0150867E-1,-1.550406E-1,-1.0226724E-1,1.5098668E-2,1.4038715E-1,-1.5283933E-1],"categories":[],"categories_nodes":[],"categories_segments":[],"categories_sizes":[],"default_left":[0,0,0,0,0,0,0,0,0,0,0,0,0,0,0,0,0,0,0,0,0,0,0,0,0,0,0,0,0,0,0,0,0,0,0,0,0,0,0,0,0],"id":5,"left_children":[1,3,5,7,9,11,13,15,17,-1,-1,19,21,23,25,27,-1,29,-1,31,-1,33,35,37,-1,-1,39,-1,-1,-1,-1,-1,-1,-1,-1,-1,-1,-1,-1,-1,-1],"loss_changes":[2.7100424E2,1.7693904E2,1.9876454E2,9.594418E1,3.8329777E1,7.650464E1,2.095717E2,7.926302E1,6.1123077E1,0E0,0E0,1.0412535E2,8.9389465E1,1.1106613E2,1.0081617E2,7.31881E1,0E0,2.3267612E1,0E0,6.8455284E1,0E0,5.3973473E1,5.9814117E1,1.0884178E2,0E0,0E0,6.762833E1,0E0,0E0,0E0,0E0,0E0,0E0,0E0,0E0,0E0,0E0,0E0,0E0,0E0,0E0],"parents":[2147483647,0,0,1,1,2,2,3,3,4,4,5,5,6,6,7,7,8,8,11,11,12,12,13,13,14,14,15,15,17,17,19,19,21,21,22,22,23,23,26,26],"right_children":[2,4,6,8,10,12,14,16,18,-1,-1,20,22,24,26,28,-1,30,-1,32,-1,34,36,38,-1,-1,40,-1,-1,-1,-1,-1,-1,-1,-1,-1,-1,-1,-1,-1,-1],"split_conditions":[4.4E1,4.9858527E0,9.4E1,6.9E0,9.6118645E1,9.82E1,1.07E2,1.01E2,9E0,1.6043274E-1,-1.377126E-1,6.0348295E-2,8.7E0,6.5E-1,9.9333336E1,1.0205769E2,-1.5880515E-1,-1.64E0,-1.6250978E-1,8.4E-1,-1.7197272E-1,4.883668E-1,9.025E1,2.8E1,1.4948067E-1,-1.6952606E-1,1.49E2,1.2755391E-1,-1.6377597E-1,1.6061027E-1,-1.2291645E-1,-1.588863E-1,6.0937066E-2,-1.7559752E-1,1.3178806E-1,1.0150867E-1,-1.550406E-1,-1.0226724E-1,1.5098668E-2,1.4038715E-1,-1.5283933E-1],"split_indices":[218,53,39,141,4,61,10,105,133,0,0,16,212,214,38,11,0,16,0,125,0,66,38,80,0,0,42,0,0,0,0,0,0,0,0,0,0,0,0,0,0],"split_type":[0,0,0,0,0,0,0,0,0,0,0,0,0,0,0,0,0,0,0,0,0,0,0,0,0,0,0,0,0,0,0,0,0,0,0,0,0,0,0,0,0],"sum_hessian":[1.453369E3,2.99342E2,1.154027E3,2.6364334E2,3.5698666E1,6.1445746E2,5.3956946E2,7.063704E1,1.930063E2,3.1507004E1,4.1916637E0,1.7954733E2,4.3491013E2,4.1200262E2,1.2756686E2,4.7216114E1,2.3420929E1,1.1312027E1,1.8169427E2,1.5287921E2,2.6668125E1,2.6462782E1,4.0844736E2,3.8820538E2,2.3797228E1,1.2572266E1,1.1499459E2,3.6985138E1,1.0230975E1,7.8881793E0,3.423848E0,1.4811428E1,1.3806778E2,1.9356968E1,7.1058135E0,4.0000296E2,8.444402E0,2.783518E2,1.09853584E2,1.0732099E2,7.6735973E0],"tree_param":{"num_deleted":"0","num_feature":"222","num_nodes":"41","size_leaf_vector":"1"}},{"base_weights":[3.111009E-2,-2.0197508E-1,6.7137384E-1,-1.1685611E0,4.6916857E-2,9.8801345E-1,2.3403846E-1,5.276157E-1,-1.5042038E-1,1.4304905E-1,-1.2270734E0,-1.5563962E-1,1.0552226E0,8.190627E-1,-8.6781484E-1,-1.4306927E-1,1.2922606E0,6.998432E-1,-5.6507356E-2,-1.6373381E-1,1.3938755E-1,-1.4920807E-1,1.1108689E0,1.2554259E0,-1.682327E-1,1.0914719E0,-1.7205557E-1,1.5010674E-1,-1.163586E-1,8.059534E-2,-1.6128992E-1,-3.7029434E-2,5.5435546E-2,1.20642E-1,-1.5437729E-2,1.4354248E-1,-1.519462E-1,-1.3440616E-1,1.4830488E-1],"categories":[],"categories_nodes":[],"categories_segments":[],"categories_sizes":[],"default_left":[0,0,0,0,0,0,0,0,0,0,0,0,0,0,0,0,0,0,0,0,0,0,0,0,0,0,0,0,0,0,0,0,0,0,0,0,0,0,0],"id":6,"left_children":[1,3,5,7,9,11,13,15,-1,17,19,-1,21,23,25,-1,27,29,31,-1,-1,-1,33,35,-1,37,-1,-1,-1,-1,-1,-1,-1,-1,-1,-1,-1,-1,-1],"loss_changes":[2.1172455E2,2.5029842E2,5.2200165E1,1.2207733E2,1.0160039E2,3.9145737E1,1.0405399E2,5.5654533E1,0E0,8.570021E1,6.4874596E1,0E0,3.202849E1,1.1697562E2,9.5583595E1,0E0,1.5267834E1,5.1235146E1,1.09168175E2,0E0,0E0,0E0,2.560492E1,4.722133E1,0E0,1.8797155E1,0E0,0E0,0E0,0E0,0E0,0E0,0E0,0E0,0E0,0E0,0E0,0E0,0E0],"parents":[2147483647,0,0,1,1,2,2,3,3,4,4,5,5,6,6,7,7,9,9,10,10,12,12,13,13,14,14,16,16,17,17,18,18,22,22,23,23,25,25],"right_children":[2,4,6,8,10,12,14,16,-1,18,20,-1,22,24,26,-1,28,30,32,-1,-1,-1,34,36,-1,38,-1,-1,-1,-1,-1,-1,-1,-1,-1,-1,-1,-1,-1],"split_conditions":[1.6557496E0,7.7E-1,9.9E1,9.501724E1,5.6413645E-1,-1.5E0,-2.3988869E-2,1.0567796E2,-1.5042038E-1,8.0166664E1,3.93E2,-1.5563962E-1,6.4E1,9.7E1,2.95E0,-1.4306927E-1,4E0,1.2525E2,1.31E2,-1.6373381E-1,1.3938755E-1,-1.4920807E-1,-1.15488075E-1,9.6E1,-1.682327E-1,9.9206894E1,-1.7205557E-1,1.5010674E-1,-1.163586E-1,8.059534E-2,-1.6128992E-1,-3.7029434E-2,5.5435546E-2,1.20642E-1,-1.5437729E-2,1.4354248E-1,-1.519462E-1,-1.3440616E-1,1.4830488E-1],"split_indices":[3,132,31,4,25,6,57,10,0,38,74,0,182,4,156,0,119,49,78,0,0,0,46,182,0,4,0,0,0,0,0,0,0,0,0,0,0,0,0],"split_type":[0,0,0,0,0,0,0,0,0,0,0,0,0,0,0,0,0,0,0,0,0,0,0,0,0,0,0,0,0,0,0,0,0,0,0,0,0,0,0],"sum_hessian":[1.4168145E3,1.0391875E3,3.77627E2,2.1203651E2,8.2715094E2,2.1830829E2,1.5931873E2,3.49325E1,1.77104E2,7.6994086E2,5.7210136E1,5.047879E0,2.132604E2,1.0423321E2,5.508552E1,9.56495E0,2.536755E1,2.024806E2,5.674602E2,4.9791428E1,7.418708E0,4.007267E0,2.0925314E2,8.9174904E1,1.5058305E1,1.661966E1,3.8465862E1,2.373802E1,1.6295315E0,1.9422113E2,8.259473E0,3.7514844E2,1.923118E2,1.9460326E2,1.4649884E1,8.419606E1,4.9788456E0,1.9650418E0,1.4654617E1],"tree_param":{"num_deleted":"0","num_feature":"222","num_nodes":"39","size_leaf_vector":"1"}},{"base_weights":[1.8185403E-2,5.913055E-1,-2.3240054E-1,2.729152E-1,1.0040255E0,-3.6188942E-1,1.2103922E0,-1.6926058E-1,4.9959406E-1,-1.5112333E-1,1.0983922E0,-1.6597013E-1,-2.4432395E-1,-1.3458791E-1,1.3813564E0,-1.0476948E0,7.602595E-1,-1.541668E-1,1.1644158E0,1.0939279E0,-3.4122568E-1,1.4754878E0,-1.1192874E-1,1.2042817E-1,-1.6708583E-1,9.577012E-2,-6.683826E-2,-1.573072E-1,1.23108104E-1,-1.348583E-1,1.3625802E-1,-2.0007188E-2,-1.5199171E-1,1.5362778E-1,-9.676658E-2],"categories":[],"categories_nodes":[],"categories_segments":[],"categories_sizes":[],"default_left":[0,0,0,0,0,0,0,0,0,0,0,0,0,0,0,0,0,0,0,0,0,0,0,0,0,0,0,0,0,0,0,0,0,0,0],"id":7,"left_children":[1,3,5,7,9,11,13,-1,15,-1,17,-1,19,-1,21,23,25,-1,27,29,31,33,-1,-1,-1,-1,-1,-1,-1,-1,-1,-1,-1,-1,-1],"loss_changes":[2.0036946E2,5.5498444E1,1.8180672E2,1.0820696E2,4.54429E1,1.3563431E2,3.6901093E1,0E0,8.824675E1,0E0,3.2886063E1,0E0,1.065443E2,0E0,1.9458466E1,4.647233E1,5.3145813E1,0E0,3.379785E1,3.826767E1,1.2684175E2,1.2378387E1,0E0,0E0,0E0,0E0,0E0,0E0,0E0,0E0,0E0,0E0,0E0,0E0,0E0],"parents":[2147483647,0,0,1,1,2,2,3,3,4,4,5,5,6,6,8,8,10,10,12,12,14,14,15,15,16,16,18,18,19,19,20,20,21,21],"right_children":[2,4,6,8,10,12,14,-1,16,-1,18,-1,20,-1,22,24,26,-1,28,30,32,34,-1,-1,-1,-1,-1,-1,-1,-1,-1,-1,-1,-1,-1],"split_conditions":[8.0333336E1,9.896E1,3.1E1,-4.734553E-1,8.4E0,6.96E1,1.4E1,-1.6926058E-1,5.7E1,-1.5112333E-1,9.5E1,-1.6597013E-1,-1.0469989E0,-1.3458791E-1,3.9E0,-1.6319672E0,2.384864E-3,-1.541668E-1,1.4E1,9.8125E1,1.61E2,1.3666667E0,-1.1192874E-1,1.2042817E-1,-1.6708583E-1,9.577012E-2,-6.683826E-2,-1.573072E-1,1.23108104E-1,-1.348583E-1,1.3625802E-1,-2.0007188E-2,-1.5199171E-1,1.5362778E-1,-9.676658E-2],"split_indices":[38,62,113,56,211,22,81,0,218,0,72,0,55,0,147,15,7,0,168,68,41,37,0,0,0,0,0,0,0,0,0,0,0,0,0],"split_type":[0,0,0,0,0,0,0,0,0,0,0,0,0,0,0,0,0,0,0,0,0,0,0,0,0,0,0,0,0,0,0,0,0,0,0],"sum_hessian":[1.3932197E3,4.2342847E2,9.697913E2,2.3996794E2,1.8346053E2,8.906094E2,7.9181915E1,2.4144573E1,2.1582336E2,6.091183E0,1.7736934E2,7.2887115E1,8.177223E2,4.5329247E0,7.4648994E1,3.0681452E1,1.8514192E2,3.7821946E0,1.7358714E2,5.4517975E1,7.632043E2,7.233601E1,2.3129785E0,6.4478393E0,2.4233612E1,1.6295131E2,2.2190613E1,3.5896032E0,1.6999754E2,5.0039215E0,4.9514053E1,6.8262634E2,8.057796E1,7.094204E1,1.3939718E0],"tree_param":{"num_deleted":"0","num_feature":"222","num_nodes":"35","size_leaf_vector":"1"}},{"base_weights":[1.1217495E-1,-4.7041333E-1,2.9349655E-1,-7.280156E-1,1.2729627E0,6.076732E-1,-2.1018412E-2,2.4366437E-1,-1.0967383E0,-1.314114E-1,1.5736543E0,3.5472158E-1,9.5432806E-1,1.8974313E-1,-1.567068E-1,6.131336E-1,-1.4411984E-1,-1.2231966E0,1.7877088E-1,-8.224573E-2,1.6741203E0,-1.697179E-1,5.108397E-1,-1.5210317E-1,1.0443592E0,4.6207592E-2,1.4381889E0,8.950492E-2,-1.4578108E-1,9.9358186E-2,-1.3225532E-1,2.2171628E-1,1.4658643E-1,6.476964E-2,-1.5400435E-1,-1.3795857E-1,1.09631516E-1,2.1166315E-2,-1.5642186E-1,1.5767297E-1,-1.0654403E-1],"categories":[],"categories_nodes":[],"categories_segments":[],"categories_sizes":[],"default_left":[0,0,0,0,0,0,0,0,0,0,0,0,0,0,0,0,0,0,0,0,0,0,0,0,0,0,0,0,0,0,0,0,0,0,0,0,0,0,0,0,0],"id":8,"left_children":[1,3,5,7,9,11,13,15,17,-1,19,21,23,25,-1,27,-1,29,-1,-1,31,-1,33,-1,35,37,39,-1,-1,-1,-1,-1,-1,-1,-1,-1,-1,-1,-1,-1,-1],"loss_changes":[1.4939493E2,1.5171529E2,1.06551125E2,1.0530441E2,3.597625E1,4.6960938E1,1.7617888E2,5.1595715E1,7.977373E1,0E0,1.0886871E1,1.01276E2,5.2170166E1,8.5213646E1,0E0,4.072206E1,0E0,4.6325867E1,0E0,0E0,1.0751266E0,0E0,8.296995E1,0E0,2.9167786E1,1.1433689E2,1.8689667E1,0E0,0E0,0E0,0E0,0E0,0E0,0E0,0E0,0E0,0E0,0E0,0E0,0E0,0E0],"parents":[2147483647,0,0,1,1,2,2,3,3,4,4,5,5,6,6,7,7,8,8,10,10,11,11,12,12,13,13,15,15,17,17,20,20,22,22,24,24,25,25,26,26],"right_children":[2,4,6,8,10,12,14,16,18,-1,20,22,24,26,-1,28,-1,30,-1,-1,32,-1,34,-1,36,38,40,-1,-1,-1,-1,-1,-1,-1,-1,-1,-1,-1,-1,-1,-1],"split_conditions":[1.5E1,4.9858527E0,9.6666664E1,8.6E0,1.6666667E-1,3.8E1,2.2391304E-1,8.5E1,1.8239153E1,-1.314114E-1,-6.730339E-1,8.4E1,8.3E0,3.1E1,-1.567068E-1,4.2E1,-1.4411984E-1,2.8E-1,1.7877088E-1,-8.224573E-2,-2.3846645E-2,-1.697179E-1,1.2725E2,-1.5210317E-1,4.7E1,6.8100974E-2,9.1E1,8.950492E-2,-1.4578108E-1,9.9358186E-2,-1.3225532E-1,2.2171628E-1,1.4658643E-1,6.476964E-2,-1.5400435E-1,-1.3795857E-1,1.09631516E-1,2.1166315E-2,-1.5642186E-1,1.5767297E-1,-1.0654403E-1],"split_indices":[81,53,31,97,37,189,27,21,13,0,56,11,211,111,0,169,0,125,0,0,7,0,48,0,218,55,21,0,0,0,0,0,0,0,0,0,0,0,0,0,0],"split_type":[0,0,0,0,0,0,0,0,0,0,0,0,0,0,0,0,0,0,0,0,0,0,0,0,0,0,0,0,0,0,0,0,0,0,0,0,0,0,0,0,0],"sum_hessian":[1.4119377E3,3.34759E2,1.0771787E3,2.9217017E2,4.2588825E1,5.3841284E2,5.3876587E2,8.0464516E1,2.1170564E2,4.083666E0,3.8505157E1,3.1244623E2,2.259666E2,4.749031E2,6.3862766E1,6.651476E1,1.3949759E1,2.0336574E2,8.33991E0,1.2603132E0,3.7244846E1,2.1393595E1,2.9105264E2,7.372382E0,2.1859422E2,4.2686307E2,4.8040024E1,5.9044853E1,7.4699097E0,8.337806E0,1.9502792E2,7.6501656E0,2.9594679E1,2.7348688E2,1.7565758E1,4.050903E0,2.1454332E2,3.8788068E2,3.8982388E1,4.5871883E1,2.1681426E0],"tree_param":{"num_deleted":"0","num_feature":"222","num_nodes":"41","size_leaf_vector":"1"}},{"base_weights":[7.44439E-2,-1.9212985E-1,6.1996144E-1,1.4012237E-2,-9.431345E-1,-3.0205023E-1,8.264684E-1,1.1104787E-1,-1.4519145E-1,-1.2972262E0,7.151513E-1,3.311315E-1,-1.5865298E-1,-1.3991824E-1,8.729155E-1,6.051907E-1,-1.6912688E-1,-1.5191021E0,4.1754046E-1,1.4636707E0,-1.3807146E-1,9.275168E-1,-1.4205207E-1,9.1488516E-1,-1.38959E-1,-8.396387E-3,9.29387E-2,-5.3880315E-2,5.1547445E-2,-1.8115649E-1,-1.4184244E-1,1.2561445E-1,-1.4558855E-1,1.6871798E-1,-1.042377E-1,-1.4370556E-1,1.1940879E-1,1.2851404E-1,6.690159E-2],"categories":[],"categories_nodes":[],"categories_segments":[],"categories_sizes":[],"default_left":[0,0,0,0,0,0,0,0,0,0,0,0,0,0,0,0,0,0,0,0,0,0,0,0,0,0,0,0,0,0,0,0,0,0,0,0,0,0,0],"id":9,"left_children":[1,3,5,7,9,11,13,15,-1,17,19,21,-1,-1,23,25,27,29,31,33,-1,35,-1,37,-1,-1,-1,-1,-1,-1,-1,-1,-1,-1,-1,-1,-1,-1,-1],"loss_changes":[1.991294E2,1.4245029E2,8.5827545E1,1.02989784E2,1.17289154E2,6.801265E1,3.92097E1,9.409851E1,0E0,6.28992E1,5.7734646E1,6.0244446E1,0E0,0E0,3.55112E1,5.501304E1,1.1012874E2,1.7034607E0,3.2517715E1,1.6687912E1,0E0,2.86218E1,0E0,3.1422882E1,0E0,0E0,0E0,0E0,0E0,0E0,0E0,0E0,0E0,0E0,0E0,0E0,0E0,0E0,0E0],"parents":[2147483647,0,0,1,1,2,2,3,3,4,4,5,5,6,6,7,7,9,9,10,10,11,11,14,14,15,15,16,16,17,17,18,18,19,19,21,21,23,23],"right_children":[2,4,6,8,10,12,14,16,-1,18,20,22,-1,-1,24,26,28,30,32,34,-1,36,-1,38,-1,-1,-1,-1,-1,-1,-1,-1,-1,-1,-1,-1,-1,-1,-1],"split_conditions":[1.3870574E0,1.02E2,1.8344828E1,-6.3920325E-1,4E0,-3.0016753E-1,7.9E0,1.2E2,-1.4519145E-1,2.16E2,1.6666667E-1,9.6E1,-1.5865298E-1,-1.3991824E-1,9.993104E1,1.11E2,1E0,6E1,1.01E2,6.4E1,-1.3807146E-1,-3.293022E-2,-1.4205207E-1,-2.3353747E-1,-1.38959E-1,-8.396387E-3,9.29387E-2,-5.3880315E-2,5.1547445E-2,-1.8115649E-1,-1.4184244E-1,1.2561445E-1,-1.4558855E-1,1.6871798E-1,-1.042377E-1,-1.4370556E-1,1.1940879E-1,1.2851404E-1,6.690159E-2],"split_indices":[3,108,54,26,147,16,215,49,0,78,33,31,0,0,4,49,125,196,48,218,0,57,0,15,0,0,0,0,0,0,0,0,0,0,0,0,0,0,0],"split_type":[0,0,0,0,0,0,0,0,0,0,0,0,0,0,0,0,0,0,0,0,0,0,0,0,0,0,0,0,0,0,0,0,0,0,0,0,0,0,0],"sum_hessian":[1.3675144E3,9.1905493E2,4.484595E2,7.218867E2,1.9716821E2,8.1978676E1,3.6648083E2,6.7793567E2,4.395107E1,1.6265453E2,3.4513683E1,5.540774E1,2.6570936E1,6.8963733E0,3.5958447E2,2.4488072E2,4.3305496E2,1.4412067E2,1.8533861E1,2.565343E1,8.86025E0,4.1685547E1,1.3722195E1,3.5362042E2,5.9640565E0,7.858054E1,1.6630019E2,2.8134506E2,1.517099E2,3.2555435E1,1.1156523E2,1.3030497E1,5.5033646E0,2.3852806E1,1.800624E0,3.7784617E0,3.7907085E1,1.3942824E2,2.1419217E2],"tree_param":{"num_deleted":"0","num_feature":"222","num_nodes":"39","size_leaf_vector":"1"}},{"base_weights":[7.194158E-2,-5.969162E-1,2.1494785E-1,-1.1000358E0,4.2374462E-1,3.7749484E-2,7.245026E-1,9.990174E-1,-1.4046499E-1,-1.3548674E-1,8.848448E-1,-8.343252E-1,1.9484833E-1,-7.3090535E-1,8.5470337E-1,1.53382E-1,-1.13939166E-1,1.2021472E0,-1.3784705E-1,2.4730258E-1,-1.4943378E-1,2.7250075E-1,-1.4803292E-1,-1.5197672E-1,1.20715596E-1,9.2132646E-1,-1.6299868E-1,-8.950508E-3,1.6823994E-1,9.0638034E-2,-1.6370131E-1,-5.5434465E-2,4.2982496E-2,-1.4888822E-1,9.690462E-2],"categories":[],"categories_nodes":[],"categories_segments":[],"categories_sizes":[],"default_left":[0,0,0,0,0,0,0,0,0,0,0,0,0,0,0,0,0,0,0,0,0,0,0,0,0,0,0,0,0,0,0,0,0,0,0],"id":10,"left_children":[1,3,5,7,9,11,13,15,-1,-1,17,19,21,23,25,-1,-1,27,-1,29,-1,31,-1,-1,-1,33,-1,-1,-1,-1,-1,-1,-1,-1,-1],"loss_changes":[1.2801035E2,1.2153519E2,9.9492905E1,1.0255583E2,6.56328E1,1.1234832E2,5.4505554E1,2.5343786E1,0E0,0E0,4.6898544E1,8.973771E1,9.076811E1,3.835492E1,4.4781845E1,0E0,0E0,3.475509E1,0E0,6.1465797E1,0E0,8.671042E1,0E0,0E0,0E0,3.0801727E1,0E0,0E0,0E0,0E0,0E0,0E0,0E0,0E0,0E0],"parents":[2147483647,0,0,1,1,2,2,3,3,4,4,5,5,6,6,7,7,10,10,11,11,12,12,13,13,14,14,17,17,19,19,21,21,25,25],"right_children":[2,4,6,8,10,12,14,16,-1,-1,18,20,22,24,26,-1,-1,28,-1,30,-1,32,-1,-1,-1,34,-1,-1,-1,-1,-1,-1,-1,-1,-1],"split_conditions":[1.3E1,4.25E0,1.7228373E0,1.9E1,2.049748E1,-5.4741967E-3,1.8206896E1,8.1E0,-1.4046499E-1,-1.3548674E-1,1.0661017E2,1.21E2,3.3536207E-2,1.25E2,9E1,1.53382E-1,-1.13939166E-1,1.27E2,-1.3784705E-1,-3.2899427E-1,-1.4943378E-1,4.2E1,-1.4803292E-1,-1.5197672E-1,1.20715596E-1,-1.4460962E0,-1.6299868E-1,-8.950508E-3,1.6823994E-1,9.0638034E-2,-1.6370131E-1,-5.5434465E-2,4.2982496E-2,-1.4888822E-1,9.690462E-2],"split_indices":[86,120,3,112,51,57,59,96,0,0,11,41,55,10,218,0,0,72,0,57,0,218,0,0,0,6,0,0,0,0,0,0,0,0,0],"split_type":[0,0,0,0,0,0,0,0,0,0,0,0,0,0,0,0,0,0,0,0,0,0,0,0,0,0,0,0,0,0,0,0,0,0,0],"sum_hessian":[1.3359669E3,2.347656E2,1.1012014E3,1.5719894E2,7.756666E1,8.178626E2,2.8333878E2,1.9632748E1,1.375662E2,1.5569961E1,6.1996696E1,1.2418513E2,6.936775E2,2.2887249E1,2.604515E2,1.5931187E1,3.7015607E0,5.4785038E1,7.2116594E0,4.72982E1,7.6886925E1,6.63747E2,2.9930485E1,1.6419672E1,6.4675765E0,2.5426305E2,6.1884675E0,1.5069309E1,3.971573E1,3.5426163E1,1.1872035E1,1.05699715E2,5.580473E2,4.350087E0,2.4991296E2],"tree_param":{"num_deleted":"0","num_feature":"222","num_nodes":"35","size_leaf_vector":"1"}},{"base_weights":[2.598115E-2,6.9466305E-1,-1.2252375E-1,9.3711567E-1,-3.4548707E-2,7.4174213E-1,-2.5140086E-1,1.000903E0,-1.3267215E-1,1.126048E0,-1.7387828E-1,8.972724E-1,-1.4281625E-1,-6.1450624E-1,1.5885262E-1,-1.2159604E-1,1.0442326E0,1.3896141E0,-1.3154218E-1,9.879131E-1,-1.381825E-1,-7.735575E-1,5.0765675E-1,-1.4604034E-1,2.9327497E-1,-1.2140279E-1,1.0855315E-1,-1.0855925E-1,1.5375434E-1,1.0634887E-1,-1.3208355E-1,-1.4803885E-1,-5.4685462E-2,1.1257746E-1,-1.3490532E-1,-5.48799E-2,5.1284857E-2],"categories":[],"categories_nodes":[],"categories_segments":[],"categories_sizes":[],"default_left":[0,0,0,0,0,0,0,0,0,0,0,0,0,0,0,0,0,0,0,0,0,0,0,0,0,0,0,0,0,0,0,0,0,0,0,0,0],"id":11,"left_children":[1,3,5,7,9,11,13,15,-1,17,-1,19,-1,21,23,-1,25,27,-1,29,-1,31,33,-1,35,-1,-1,-1,-1,-1,-1,-1,-1,-1,-1,-1,-1],"loss_changes":[1.24344986E2,4.026301E1,1.1433028E2,2.5993057E1,1.1617012E2,4.6246437E1,1.3305527E2,1.7281815E1,0E0,2.4322601E1,0E0,2.7174751E1,0E0,8.493628E1,9.181642E1,0E0,1.6616623E1,1.3399868E1,0E0,2.2472519E1,0E0,6.57345E1,6.969839E1,0E0,7.211551E1,0E0,0E0,0E0,0E0,0E0,0E0,0E0,0E0,0E0,0E0,0E0,0E0],"parents":[2147483647,0,0,1,1,2,2,3,3,4,4,5,5,6,6,7,7,9,9,11,11,13,13,14,14,16,16,17,17,19,19,21,21,22,22,24,24],"right_children":[2,4,6,8,10,12,14,16,-1,18,-1,20,-1,22,24,-1,26,28,-1,30,-1,32,34,-1,36,-1,-1,-1,-1,-1,-1,-1,-1,-1,-1,-1,-1],"split_conditions":[3.5E1,9E1,9.304661E1,5.079551E0,3.9E0,1.54E2,1.8E1,1.1E1,-1.3267215E-1,8.1E1,-1.7387828E-1,2.0333333E0,-1.4281625E-1,2.8333333E0,-1.3E0,-1.2159604E-1,-8.5902727E-1,7.1E1,-1.3154218E-1,1.54E2,-1.381825E-1,9.81E1,4E0,-1.4604034E-1,4.4E1,-1.2140279E-1,1.0855315E-1,-1.0855925E-1,1.5375434E-1,1.0634887E-1,-1.3208355E-1,-1.4803885E-1,-5.4685462E-2,1.1257746E-1,-1.3490532E-1,-5.48799E-2,5.1284857E-2],"split_indices":[197,38,8,16,118,41,50,134,0,183,0,37,0,37,27,0,45,183,0,74,0,60,47,0,218,0,0,0,0,0,0,0,0,0,0,0,0],"split_type":[0,0,0,0,0,0,0,0,0,0,0,0,0,0,0,0,0,0,0,0,0,0,0,0,0,0,0,0,0,0,0,0,0,0,0,0,0],"sum_hessian":[1.2503263E3,2.265497E2,1.02377655E3,1.6980637E2,5.674333E1,1.3223523E2,8.915414E2,1.656955E2,4.110869E0,3.3957363E1,2.2785965E1,1.2393831E2,8.296918E0,4.726831E2,4.1885825E2,2.6576889E0,1.6303781E2,3.1037567E1,2.9197974E0,1.1974262E2,4.1956816E0,4.1427585E2,5.8407253E1,3.1350067E1,3.8750818E2,2.4180949E0,1.6061972E2,1.392874E0,2.9644693E1,1.1646942E2,3.2732022E0,9.9261345E1,3.150145E2,4.411469E1,1.4292562E1,7.983565E1,3.0767255E2],"tree_param":{"num_deleted":"0","num_feature":"222","num_nodes":"37","size_leaf_vector":"1"}},{"base_weights":[1.4156611E-1,-1.3160104E-1,5.3091234E-1,-4.5546588E-1,3.90566E-1,5.884748E-1,-1.5510505E-1,8.79286E-1,-6.518705E-1,-6.6490376E-1,6.5878797E-1,-1.5139376E-1,6.4246017E-1,-1.3043182E-1,1.0805248E0,-7.559835E-1,1.252633E0,8.173547E-1,-1.3967961E-1,7.6695096E-1,-1.3577524E-1,7.371385E-1,-9.66992E-2,1.2573338E-1,-1.2466711E-1,-1.4146361E-1,-5.140263E-2,-8.3313994E-2,1.3968593E-1,-1.12735406E-1,1.4314905E-1,-1.4330085E-1,8.65165E-2,7.727098E-2,-1.3796729E-1,-1.5030506E-1,8.526664E-2],"categories":[],"categories_nodes":[],"categories_segments":[],"categories_sizes":[],"default_left":[0,0,0,0,0,0,0,0,0,0,0,0,0,0,0,0,0,0,0,0,0,0,0,0,0,0,0,0,0,0,0,0,0,0,0,0,0],"id":12,"left_children":[1,3,5,7,9,11,-1,13,15,17,19,-1,21,-1,23,25,27,29,-1,31,-1,33,35,-1,-1,-1,-1,-1,-1,-1,-1,-1,-1,-1,-1,-1,-1],"loss_changes":[1.413559E2,1.3233632E2,6.6578445E1,1.271377E2,8.528175E1,6.15717E1,0E0,2.8809502E1,8.451109E1,6.75623E1,5.3273262E1,0E0,3.654959E1,0E0,2.5284447E1,6.3053604E1,7.848316E0,2.6538013E1,0E0,5.048529E1,0E0,3.5867188E1,8.1482895E1,0E0,0E0,0E0,0E0,0E0,0E0,0E0,0E0,0E0,0E0,0E0,0E0,0E0,0E0],"parents":[2147483647,0,0,1,1,2,2,3,3,4,4,5,5,7,7,8,8,9,9,10,10,12,12,14,14,15,15,16,16,17,17,19,19,21,21,22,22],"right_children":[2,4,6,8,10,12,-1,14,16,18,20,-1,22,-1,24,26,28,30,-1,32,-1,34,36,-1,-1,-1,-1,-1,-1,-1,-1,-1,-1,-1,-1,-1,-1],"split_conditions":[4.3E0,1.03651306E2,8.3E0,8.1E0,4.2E1,7.9E0,-1.5510505E-1,7.6E1,2.9E0,-1.4648438E0,1.485E2,-1.5139376E-1,9.761017E1,-1.3043182E-1,1.6666668E-2,3.825E0,-2.1383344E-1,2.0559322E1,-1.3967961E-1,2.8E0,-1.3577524E-1,9.898077E1,1.35E0,1.2573338E-1,-1.2466711E-1,-1.4146361E-1,-5.140263E-2,-8.3313994E-2,1.3968593E-1,-1.12735406E-1,1.4314905E-1,-1.4330085E-1,8.65165E-2,7.727098E-2,-1.3796729E-1,-1.5030506E-1,8.526664E-2],"split_indices":[119,12,141,96,218,215,0,184,67,56,44,0,0,0,37,123,25,58,0,147,0,8,125,0,0,0,0,0,0,0,0,0,0,0,0,0,0],"split_type":[0,0,0,0,0,0,0,0,0,0,0,0,0,0,0,0,0,0,0,0,0,0,0,0,0,0,0,0,0,0,0,0,0,0,0,0,0],"sum_hessian":[1.3274181E3,7.804868E2,5.469313E2,4.8179175E2,2.9869507E2,5.329145E2,1.40167675E1,6.1354424E1,4.2043732E2,6.0225426E1,2.3846964E2,1.2664474E1,5.2025E2,4.714698E0,5.6639725E1,3.992165E2,2.1220814E1,1.9869047E1,4.035638E1,2.269179E2,1.155173E1,4.611805E2,5.90695E1,5.3067627E1,3.5720966E0,1.0595115E2,2.9326535E2,1.0635363E0,2.0157278E1,4.568106E0,1.53009405E1,9.116685E0,2.1780121E2,4.5418332E2,6.9972067E0,2.3570263E1,3.5499237E1],"tree_param":{"num_deleted":"0","num_feature":"222","num_nodes":"37","size_leaf_vector":"1"}},{"base_weights":[1.0713973E-1,-1.3195091E-1,4.5696744E-1,-3.9310008E-1,3.2058728E-1,5.9658295E-1,-5.359147E-1,-5.2651894E-1,1.1234907E0,-1.528124E-1,4.4550797E-1,1.1766775E0,3.8887182E-1,8.061168E-1,-1.5509777E-1,-7.0765233E-1,4.4420177E-1,1.372908E0,-1.0655705E-1,5.542647E-1,-1.2914735E-1,-1.15910314E-1,1.2599071E0,6.58039E-1,-2.5890246E-1,-1.3669364E-1,1.2363613E0,-8.358118E-2,1.0397655E-1,-1.3389812E-1,8.563033E-2,1.4525545E-1,8.8388324E-2,-1.3607727E-1,6.306483E-2,1.328318E-1,-1.1735272E-1,7.184868E-2,-1.4724906E-1,3.474274E-2,-1.4428733E-1,1.403932E-1,-9.748052E-2],"categories":[],"categories_nodes":[],"categories_segments":[],"categories_sizes":[],"default_left":[0,0,0,0,0,0,0,0,0,0,0,0,0,0,0,0,0,0,0,0,0,0,0,0,0,0,0,0,0,0,0,0,0,0,0,0,0,0,0,0,0,0,0],"id":13,"left_children":[1,3,5,7,9,11,13,15,17,-1,19,21,23,25,-1,27,29,31,-1,33,-1,-1,35,37,39,-1,41,-1,-1,-1,-1,-1,-1,-1,-1,-1,-1,-1,-1,-1,-1,-1,-1],"loss_changes":[1.086148E2,9.132939E1,7.339227E1,9.969716E1,6.602356E1,5.5284973E1,9.049475E1,7.959073E1,2.326075E1,0E0,5.092871E1,2.507698E1,5.982628E1,2.8682333E1,0E0,8.604869E1,5.3699768E1,1.290741E-1,0E0,3.755079E1,0E0,0E0,2.1166061E1,3.222284E1,7.311697E1,0E0,1.0492481E1,0E0,0E0,0E0,0E0,0E0,0E0,0E0,0E0,0E0,0E0,0E0,0E0,0E0,0E0,0E0,0E0],"parents":[2147483647,0,0,1,1,2,2,3,3,4,4,5,5,6,6,7,7,8,8,10,10,11,11,12,12,13,13,15,15,16,16,17,17,19,19,22,22,23,23,24,24,26,26],"right_children":[2,4,6,8,10,12,14,16,18,-1,20,22,24,26,-1,28,30,32,-1,34,-1,-1,36,38,40,-1,42,-1,-1,-1,-1,-1,-1,-1,-1,-1,-1,-1,-1,-1,-1,-1,-1],"split_conditions":[4.225E0,1.03E2,-2.1198027E-1,4E-1,1.75E1,-5.096114E-1,6.4E1,1E2,5.9E1,-1.528124E-1,1.485E2,-8.888889E-1,1.01E2,9.5E0,-1.5509777E-1,1.3245376E0,4.2E1,-9.1917425E-2,-1.0655705E-1,2.7E0,-1.2914735E-1,-1.15910314E-1,3.9E0,8.9E1,5.9E1,-1.3669364E-1,9.599317E1,-8.358118E-2,1.0397655E-1,-1.3389812E-1,8.563033E-2,1.4525545E-1,8.8388324E-2,-1.3607727E-1,6.306483E-2,1.328318E-1,-1.1735272E-1,7.184868E-2,-1.4724906E-1,3.474274E-2,-1.4428733E-1,1.403932E-1,-9.748052E-2],"split_indices":[123,18,5,93,59,25,182,0,197,0,44,35,110,175,0,63,218,56,0,147,0,0,147,218,196,0,2,0,0,0,0,0,0,0,0,0,0,0,0,0,0,0,0],"split_type":[0,0,0,0,0,0,0,0,0,0,0,0,0,0,0,0,0,0,0,0,0,0,0,0,0,0,0,0,0,0,0,0,0,0,0,0,0,0,0,0,0,0,0],"sum_hessian":[1.2968695E3,7.707329E2,5.2613654E2,4.8879318E2,2.8193973E2,4.6162384E2,6.4512726E1,4.498697E2,3.8923504E1,1.7134354E1,2.648054E2,1.20480774E2,3.4114307E2,2.7870508E1,3.6642216E1,3.7935437E2,7.051531E1,3.527695E1,3.6465535E0,2.4984299E2,1.4962391E1,3.700562E0,1.1678021E2,2.4098969E2,1.00153366E2,4.246322E0,2.3624187E1,3.5391888E2,2.5435501E1,1.2815007E1,5.7700306E1,2.8641808E1,6.6351423E0,8.938085E0,2.4090489E2,1.1402868E2,2.751532E0,2.349854E2,6.004293E0,6.67012E1,3.345216E1,2.229933E1,1.3248577E0],"tree_param":{"num_deleted":"0","num_feature":"222","num_nodes":"43","size_leaf_vector":"1"}},{"base_weights":[1.2811488E-1,-8.972616E-2,4.9157065E-1,-2.343417E-1,7.7919966E-1,-1.6187857E-1,5.5101365E-1,-9.1811016E-2,-1.3523287E-1,1.0805782E0,-2.0290326E-1,-1.4270894E-1,6.006607E-1,-1.3880739E-1,1.511246E-2,1.1962556E0,-1.2575887E-1,-1.5411414E-1,1.1352245E-1,6.495223E-1,-1.3032626E-1,1.127892E-2,-1.3358979E-1,1.2616716E-1,-9.034234E-2,3.7987486E-3,7.760375E-2],"categories":[],"categories_nodes":[],"categories_segments":[],"categories_sizes":[],"default_left":[0,0,0,0,0,0,0,0,0,0,0,0,0,0,0,0,0,0,0,0,0,0,0,0,0,0,0],"id":14,"left_children":[1,3,5,7,9,-1,11,13,-1,15,17,-1,19,-1,21,23,-1,-1,-1,25,-1,-1,-1,-1,-1,-1,-1],"loss_changes":[1.00369576E2,9.984573E1,6.048005E1,1.0834692E2,3.378266E1,0E0,4.630179E1,8.3849884E1,0E0,2.50158E1,5.0938736E1,0E0,4.2906372E1,0E0,7.401309E1,1.25870285E1,0E0,0E0,0E0,3.4126495E1,0E0,0E0,0E0,0E0,0E0,0E0,0E0],"parents":[2147483647,0,0,1,1,2,2,3,3,4,4,6,6,7,7,9,9,10,10,12,12,14,14,15,15,19,19],"right_children":[2,4,6,8,10,-1,12,14,-1,16,18,-1,20,-1,22,24,-1,-1,-1,26,-1,-1,-1,-1,-1,-1,-1],"split_conditions":[2.15E1,2.5448788E1,1.7E1,7.7E0,3.5177675E-1,-1.6187857E-1,7.8E0,8.136583E1,-1.3523287E-1,3.4106457E-1,1.0095E2,-1.4270894E-1,1.13333336E2,-1.3880739E-1,4.082483E-1,9.701883E0,-1.2575887E-1,-1.5411414E-1,1.1352245E-1,2.4E1,-1.3032626E-1,1.127892E-2,-1.3358979E-1,1.2616716E-1,-9.034234E-2,3.7987486E-3,7.760375E-2],"split_indices":[82,52,113,141,15,0,217,12,0,56,64,0,34,0,25,33,0,0,0,190,0,0,0,0,0,0,0],"split_type":[0,0,0,0,0,0,0,0,0,0,0,0,0,0,0,0,0,0,0,0,0,0,0,0,0,0,0],"sum_hessian":[1.2661263E3,7.9211633E2,4.740101E2,6.797206E2,1.12395744E2,1.2267139E1,4.6174295E2,6.038222E2,7.589837E1,8.5927E1,2.6468739E1,1.0625936E1,4.5111703E2,4.509852E1,5.587237E2,8.234165E1,3.5853524E0,1.3157969E1,1.331077E1,4.4047177E2,1.064526E1,5.2190686E2,3.6816845E1,8.024084E1,2.1008122E0,7.5727776E1,3.64744E2],"tree_param":{"num_deleted":"0","num_feature":"222","num_nodes":"27","size_leaf_vector":"1"}},{"base_weights":[1.1738605E-2,4.565023E-1,-3.0989447E-1,6.508523E-1,-2.9201826E-1,-8.262021E-1,-4.7081355E-2,-2.0468749E-1,7.884848E-1,-1.5197496E-1,2.2415465E-1,-1.0988193E0,9.1111183E-1,-8.9429414E-1,1.5892607E-1,-1.5087812E-1,6.327711E-1,8.904128E-1,-7.784725E-2,8.9515454E-1,-7.7267927E-1,-1.2590442E0,9.536977E-1,1.1375879E0,-1.14909105E-1,-1.3011837E-1,1.2430965E-1,-1.4912644E-1,2.7566877E-1,-1.301769E-1,9.802695E-2,9.255349E-2,-1.18426256E-1,-1.4753644E-1,1.4066885E-1,1.0717664E-1,-1.1225342E-1,-1.6115119E-1,1.3671698E-1,1.3681427E-1,-1.390891E-1,-8.819618E-2,1.2489205E-1,-7.748145E-2,1.2571262E-1,3.7181824E-2,-1.444587E-1],"categories":[],"categories_nodes":[],"categories_segments":[],"categories_sizes":[],"default_left":[0,0,0,0,0,0,0,0,0,0,0,0,0,0,0,0,0,0,0,0,0,0,0,0,0,0,0,0,0,0,0,0,0,0,0,0,0,0,0,0,0,0,0,0,0,0,0],"id":15,"left_children":[1,3,5,7,9,11,13,15,17,-1,19,21,23,25,27,-1,29,31,33,35,37,39,41,43,-1,-1,-1,-1,45,-1,-1,-1,-1,-1,-1,-1,-1,-1,-1,-1,-1,-1,-1,-1,-1,-1,-1],"loss_changes":[1.6661975E2,7.129868E1,9.168481E1,4.589058E1,6.462872E1,1.0896658E2,7.850892E1,6.059784E1,2.9628555E1,0E0,4.9044838E1,6.614867E1,1.5988657E1,7.812894E1,7.015618E1,0E0,2.4105953E1,2.2926132E1,7.709115E1,1.6764748E1,5.5371094E1,6.550699E1,9.15964E0,7.5697174E0,0E0,0E0,0E0,0E0,5.6601425E1,0E0,0E0,0E0,0E0,0E0,0E0,0E0,0E0,0E0,0E0,0E0,0E0,0E0,0E0,0E0,0E0,0E0,0E0],"parents":[2147483647,0,0,1,1,2,2,3,3,4,4,5,5,6,6,7,7,8,8,10,10,11,11,12,12,13,13,14,14,16,16,17,17,18,18,19,19,20,20,21,21,22,22,23,23,28,28],"right_children":[2,4,6,8,10,12,14,16,18,-1,20,22,24,26,28,-1,30,32,34,36,38,40,42,44,-1,-1,-1,-1,46,-1,-1,-1,-1,-1,-1,-1,-1,-1,-1,-1,-1,-1,-1,-1,-1,-1,-1],"split_conditions":[9.9E1,9.6E0,9.8175E1,2.9E0,1.34E2,1.04E1,1.5E1,1E0,-1.8072091E-1,-1.5197496E-1,1.15E1,2.7E1,6.8E0,3.4E1,-1.374359E0,-1.5087812E-1,9.82E1,1.504207E1,4.017934E0,9.4066666E1,6E0,4.5E1,9.9030304E1,1.1E1,-1.14909105E-1,-1.3011837E-1,1.2430965E-1,-1.4912644E-1,1.37E1,-1.301769E-1,9.802695E-2,9.255349E-2,-1.18426256E-1,-1.4753644E-1,1.4066885E-1,1.0717664E-1,-1.1225342E-1,-1.6115119E-1,1.3671698E-1,1.3681427E-1,-1.390891E-1,-8.819618E-2,1.2489205E-1,-7.748145E-2,1.2571262E-1,3.7181824E-2,-1.444587E-1],"split_indices":[105,176,68,147,72,175,87,162,5,0,137,23,140,54,37,0,61,23,16,0,220,21,4,211,0,0,0,0,213,0,0,0,0,0,0,0,0,0,0,0,0,0,0,0,0,0,0],"split_type":[0,0,0,0,0,0,0,0,0,0,0,0,0,0,0,0,0,0,0,0,0,0,0,0,0,0,0,0,0,0,0,0,0,0,0,0,0,0,0,0,0,0,0,0,0,0,0],"sum_hessian":[1.162771E3,4.8780313E2,6.7496783E2,3.8735788E2,1.0044527E2,2.2695714E2,4.4801068E2,5.361203E1,3.3374585E2,2.9155012E1,7.129025E1,1.9649146E2,3.0465685E1,8.697634E1,3.6103436E2,2.0651625E1,3.2960403E1,2.985878E2,3.515803E1,4.2669853E1,2.8620401E1,1.8262209E2,1.3869379E1,2.7851791E1,2.6138926E0,7.339546E1,1.358088E1,2.307592E1,3.3795844E2,4.6008945E0,2.835951E1,2.9416183E2,4.4259686E0,1.8112967E1,1.7045065E1,3.966658E1,3.0032704E0,2.0737925E1,7.8824763E0,8.278917E0,1.7434317E2,1.6461804E0,1.2223198E1,1.3160233E0,2.6535769E1,3.208113E2,1.7147106E1],"tree_param":{"num_deleted":"0","num_feature":"222","num_nodes":"47","size_leaf_vector":"1"}},{"base_weights":[1.21354066E-1,-4.473882E-2,4.919204E-1,3.10272E-1,-3.551126E-1,-2.7902633E-1,6.625897E-1,-1.3572174E-1,4.4962716E-1,-5.533764E-1,5.3016543E-1,6.237464E-1,-1.4320375E-1,-1.6487668E-1,7.531476E-1,2.7648288E-1,1.1605159E0,8.58217E-1,-7.474205E-1,-1.6585508E-1,1.1232059E0,-1.2205752E-1,1.0838666E0,-1.2774155E-1,8.0050373E-1,-1.4096607E-1,4.0502455E-2,-1.2974006E-1,1.2885047E-1,1.2766652E-1,-1.3845287E-1,9.7182564E-2,-8.420171E-2,-1.2856753E-1,1.1883219E-1,1.2713835E-1,-9.583719E-2,-9.9758446E-2,1.2892424E-1,-1.2583731E-1,8.3778225E-2],"categories":[],"categories_nodes":[],"categories_segments":[],"categories_sizes":[],"default_left":[0,0,0,0,0,0,0,0,0,0,0,0,0,0,0,0,0,0,0,0,0,0,0,0,0,0,0,0,0,0,0,0,0,0,0,0,0,0,0,0,0],"id":16,"left_children":[1,3,5,7,9,11,13,-1,15,17,19,21,-1,-1,23,25,27,29,31,33,35,-1,37,-1,39,-1,-1,-1,-1,-1,-1,-1,-1,-1,-1,-1,-1,-1,-1,-1,-1],"loss_changes":[7.278877E1,9.0163025E1,4.8340515E1,8.932108E1,7.691067E1,7.067525E1,6.4024536E1,0E0,4.3136932E1,9.846497E1,3.336625E1,3.382178E1,0E0,0E0,2.8844116E1,6.2391514E1,2.3327179E1,4.2709366E1,5.1968506E1,5.892862E1,1.4645451E1,0E0,1.4614796E1,0E0,2.2801682E1,0E0,0E0,0E0,0E0,0E0,0E0,0E0,0E0,0E0,0E0,0E0,0E0,0E0,0E0,0E0,0E0],"parents":[2147483647,0,0,1,1,2,2,3,3,4,4,5,5,6,6,8,8,9,9,10,10,11,11,14,14,15,15,16,16,17,17,18,18,19,19,20,20,22,22,24,24],"right_children":[2,4,6,8,10,12,14,-1,16,18,20,22,-1,-1,24,26,28,30,32,34,36,-1,38,-1,40,-1,-1,-1,-1,-1,-1,-1,-1,-1,-1,-1,-1,-1,-1,-1,-1],"split_conditions":[1.3870574E0,9.5333336E1,1.85E1,4E-1,9.3E1,-1.028534E0,1.7320508E0,-1.3572174E-1,2.13E2,8.1E0,1.13E2,1.9150994E0,-1.4320375E-1,-1.6487668E-1,-4.7883663E0,1.1E1,7.7666664E1,2E1,8.8E1,1.64E0,1.16666664E2,-1.2205752E-1,-1.4138188E-2,-1.2774155E-1,-1.4460962E0,-1.4096607E-1,4.0502455E-2,-1.2974006E-1,1.2885047E-1,1.2766652E-1,-1.3845287E-1,9.7182564E-2,-8.420171E-2,-1.2856753E-1,1.1883219E-1,1.2713835E-1,-9.583719E-2,-9.9758446E-2,1.2892424E-1,-1.2583731E-1,8.3778225E-2],"split_indices":[3,31,54,161,20,16,23,0,72,98,10,3,0,0,5,133,34,111,104,126,31,0,7,0,6,0,0,0,0,0,0,0,0,0,0,0,0,0,0,0,0],"split_type":[0,0,0,0,0,0,0,0,0,0,0,0,0,0,0,0,0,0,0,0,0,0,0,0,0,0,0,0,0,0,0,0,0,0,0,0,0,0,0,0,0],"sum_hessian":[1.1812683E3,8.1627985E2,3.6498846E2,3.8076016E2,4.3551965E2,6.603963E1,2.9894885E2,2.8692575E1,3.520676E2,3.5613568E2,7.938399E1,3.729657E1,2.8743057E1,1.0622347E1,2.883265E2,2.842295E2,6.783809E1,4.2625973E1,3.135097E2,3.6852486E1,4.2531498E1,7.1168866E0,3.0179684E1,5.9790425E0,2.8234744E2,1.9427181E1,2.648023E2,2.9054039E0,6.4932686E1,3.6286457E1,6.339515E0,1.5866708E1,2.97643E2,2.0199413E1,1.6653074E1,4.006844E1,2.4630594E0,2.3639584E0,2.7815725E1,4.438791E0,2.7790866E2],"tree_param":{"num_deleted":"0","num_feature":"222","num_nodes":"41","size_leaf_vector":"1"}},{"base_weights":[1.4544259E-1,7.7365875E-1,4.3617986E-2,8.4302187E-1,-1.3016962E-1,-1.8851193E-2,1.0899972E0,8.818617E-1,-1.2102957E-1,-8.693787E-2,9.715846E-1,-9.575723E-2,1.183876E0,9.150586E-1,-1.2655453E-1,4.4019875E-1,-2.3137926E-1,1.135366E0,-1.2282163E-1,1.2735994E0,-9.409616E-2,-1.1345904E-1,9.500933E-2,-1.2440982E-1,5.440556E-2,-6.841209E-3,-1.0705384E-1,-9.8382376E-2,1.2226504E-1,1.3152769E-1,6.720592E-2],"categories":[],"categories_nodes":[],"categories_segments":[],"categories_sizes":[],"default_left":[0,0,0,0,0,0,0,0,0,0,0,0,0,0,0,0,0,0,0,0,0,0,0,0,0,0,0,0,0,0,0],"id":17,"left_children":[1,3,5,7,-1,9,11,13,-1,15,17,-1,19,21,-1,23,25,27,-1,29,-1,-1,-1,-1,-1,-1,-1,-1,-1,-1,-1],"loss_changes":[7.729018E1,2.5359253E1,6.808357E1,1.4122185E1,0E0,6.641232E1,1.2412941E1,1.2652145E1,0E0,7.02444E1,2.4217884E1,0E0,1.198008E1,1.2521515E1,0E0,3.5396076E1,9.890309E1,1.22046585E1,0E0,4.870758E-1,0E0,0E0,0E0,0E0,0E0,0E0,0E0,0E0,0E0,0E0,0E0],"parents":[2147483647,0,0,1,1,2,2,3,3,5,5,6,6,7,7,9,9,10,10,12,12,13,13,15,15,16,16,17,17,19,19],"right_children":[2,4,6,8,-1,10,12,14,-1,16,18,-1,20,22,-1,24,26,28,-1,30,-1,-1,-1,-1,-1,-1,-1,-1,-1,-1,-1],"split_conditions":[9.314011E1,2.1666667E0,1E0,1.1706624E0,-1.3016962E-1,1.3411462E2,8.501695E1,1.03E2,-1.2102957E-1,8.0666664E1,9.3E0,-9.575723E-2,9.6E1,1E-1,-1.2655453E-1,1.5E1,-1.1240199E0,3.3E1,-1.2282163E-1,2E0,-9.409616E-2,-1.1345904E-1,9.500933E-2,-1.2440982E-1,5.440556E-2,-6.841209E-3,-1.0705384E-1,-9.8382376E-2,1.2226504E-1,1.3152769E-1,6.720592E-2],"split_indices":[8,37,199,45,0,19,19,189,0,39,175,0,18,67,0,80,46,218,0,220,0,0,0,0,0,0,0,0,0,0,0],"split_type":[0,0,0,0,0,0,0,0,0,0,0,0,0,0,0,0,0,0,0,0,0,0,0,0,0,0,0,0,0,0,0],"sum_hessian":[1.2077935E3,1.675403E2,1.0402532E3,1.6269641E2,4.8438916E0,9.825751E2,5.767807E1,1.6023596E2,2.4604506E0,9.2022705E2,6.2348007E1,2.1252236E0,5.5552845E1,1.5836171E2,1.8742483E0,1.9747983E2,7.2274725E2,5.8478035E1,3.8699741E0,5.3686493E1,1.8663511E0,2.1339397E0,1.5622777E2,1.0832056E1,1.8664778E2,6.061187E2,1.166285E2,1.9069712E0,5.6571064E1,4.909823E1,4.5882664E0],"tree_param":{"num_deleted":"0","num_feature":"222","num_nodes":"31","size_leaf_vector":"1"}},{"base_weights":[9.114506E-2,-7.027296E-2,4.4761503E-1,1.0651773E-1,-8.8693625E-1,-1.312004E-1,5.35192E-1,-1.4094953E-1,1.8574753E-1,-1.2076209E0,5.5592555E-1,-8.5028017E-1,6.284127E-1,-6.2418115E-1,3.0742574E-1,1.6966292E-1,-1.3294886E0,-1.2309567E-1,1.5777707E-1,-1.4400962E-1,1.0175615E-1,9.4763356E-1,3.2591566E-1,1.07538916E-1,-9.9077284E-2,8.956419E-2,1.2881187E-2,-9.645005E-2,1.05673246E-1,-1.5350422E-1,-1.2292709E-1,-1.259712E-1,1.0231501E-1,-4.7665846E-2,6.9009125E-2],"categories":[],"categories_nodes":[],"categories_segments":[],"categories_sizes":[],"default_left":[0,0,0,0,0,0,0,0,0,0,0,0,0,0,0,0,0,0,0,0,0,0,0,0,0,0,0,0,0,0,0,0,0,0,0],"id":18,"left_children":[1,3,5,7,9,-1,11,-1,13,15,17,19,21,23,25,27,29,-1,-1,-1,-1,31,33,-1,-1,-1,-1,-1,-1,-1,-1,-1,-1,-1,-1],"loss_changes":[6.571097E1,1.1365362E2,5.554824E1,7.8030655E1,6.548504E1,0E0,4.441382E1,0E0,6.091767E1,1.9514435E1,4.970141E1,2.55298E1,3.0485252E1,5.1414658E1,5.6238342E1,1.1310215E1,2.902527E-1,0E0,0E0,0E0,0E0,2.706546E1,4.8631805E1,0E0,0E0,0E0,0E0,0E0,0E0,0E0,0E0,0E0,0E0,0E0,0E0],"parents":[2147483647,0,0,1,1,2,2,3,3,4,4,6,6,8,8,9,9,10,10,11,11,12,12,13,13,14,14,15,15,16,16,21,21,22,22],"right_children":[2,4,6,8,10,-1,12,-1,14,16,18,20,22,24,26,28,30,-1,-1,-1,-1,32,34,-1,-1,-1,-1,-1,-1,-1,-1,-1,-1,-1,-1],"split_conditions":[1.3870574E0,1.02E2,1.9E1,1.4E1,4E0,-1.312004E-1,-6.796348E-1,-1.4094953E-1,7.7E-1,-1.8E-1,9.9745766E1,1.4366567E0,8.4E1,3.3E-1,7.8E1,4.7E0,6.1E1,-1.2309567E-1,1.5777707E-1,-1.4400962E-1,1.0175615E-1,7.430536E1,4.265183E0,1.07538916E-1,-9.9077284E-2,8.956419E-2,1.2881187E-2,-9.645005E-2,1.05673246E-1,-1.5350422E-1,-1.2292709E-1,-1.259712E-1,1.0231501E-1,-4.7665846E-2,6.9009125E-2],"split_indices":[3,108,51,168,147,0,45,0,125,67,0,55,182,125,182,118,196,0,0,0,0,12,13,0,0,0,0,0,0,0,0,0,0,0,0],"split_type":[0,0,0,0,0,0,0,0,0,0,0,0,0,0,0,0,0,0,0,0,0,0,0,0,0,0,0,0,0,0,0,0,0,0,0],"sum_hessian":[1.1404451E3,7.855379E2,3.5490726E2,6.4646185E2,1.3907603E2,1.616357E1,3.3874368E2,3.127347E1,6.1518835E2,1.1391973E2,2.5156301E1,2.0843323E1,3.1790036E2,7.981104E1,5.353773E2,9.228787E0,1.0469095E2,9.0776825E0,1.6078619E1,1.6015156E1,4.828166E0,1.5363686E2,1.6426349E2,1.3817535E1,6.599351E1,1.2376771E2,4.1160962E2,4.011979E0,5.216808E0,2.9620386E1,7.5070564E1,4.5635395E0,1.4907332E2,5.1174877E1,1.13088615E2],"tree_param":{"num_deleted":"0","num_feature":"222","num_nodes":"35","size_leaf_vector":"1"}},{"base_weights":[1.1898089E-1,4.6362576E-1,-7.816376E-2,2.3257183E-2,6.508809E-1,-1.3531958E-1,1.3518799E-2,1.1097234E0,-3.1600508E-1,-1.4913963E-1,7.180754E-1,1.0364324E-1,-7.574798E-1,1.4007185E0,-1.2053298E-1,-1.0787542E0,7.1440595E-1,-1.3283305E-1,7.600397E-1,-3.193272E-1,2.7887112E-1,4.3543503E-1,-1.2467115E-1,6.411495E-2,1.5748842E-1,-1.5229547E-1,4.5137312E-2,-1.4396167E-1,1.0681855E-1,-1.3478377E-1,7.991083E-2,3.039358E-2,-9.297433E-2,9.922466E-3,8.7608956E-2,-1.24025725E-1,1.2931089E-1],"categories":[],"categories_nodes":[],"categories_segments":[],"categories_sizes":[],"default_left":[0,0,0,0,0,0,0,0,0,0,0,0,0,0,0,0,0,0,0,0,0,0,0,0,0,0,0,0,0,0,0,0,0,0,0,0,0],"id":19,"left_children":[1,3,5,7,9,-1,11,13,15,-1,17,19,21,23,-1,25,27,-1,29,31,33,35,-1,-1,-1,-1,-1,-1,-1,-1,-1,-1,-1,-1,-1,-1,-1],"loss_changes":[7.82793E1,3.455036E1,8.57507E1,4.6830616E1,4.3402527E1,0E0,4.768922E1,2.2051956E1,7.690649E1,0E0,2.5553345E1,4.56227E1,4.2464508E1,2.6038094E0,0E0,3.8793304E1,3.339714E1,0E0,2.4193024E1,6.892587E1,4.6575703E1,3.2693848E1,0E0,0E0,0E0,0E0,0E0,0E0,0E0,0E0,0E0,0E0,0E0,0E0,0E0,0E0,0E0],"parents":[2147483647,0,0,1,1,2,2,3,3,4,4,6,6,7,7,8,8,10,10,11,11,12,12,13,13,15,15,16,16,18,18,19,19,20,20,21,21],"right_children":[2,4,6,8,10,-1,12,14,16,-1,18,20,22,24,-1,26,28,-1,30,32,34,36,-1,-1,-1,-1,-1,-1,-1,-1,-1,-1,-1,-1,-1,-1,-1],"split_conditions":[6.3E1,2.9E1,1.675E1,9.5E1,8.1E0,-1.3531958E-1,7.7E0,8.85E0,2.7E1,-1.4913963E-1,4.6E1,9.8125E1,9.601111E1,8.6E1,-1.2053298E-1,7E1,1.38E2,-1.3283305E-1,1.7E1,9.76E1,1.45E2,9.510345E1,-1.2467115E-1,6.411495E-2,1.5748842E-1,-1.5229547E-1,4.5137312E-2,-1.4396167E-1,1.0681855E-1,-1.3478377E-1,7.991083E-2,3.039358E-2,-9.297433E-2,9.922466E-3,8.7608956E-2,-1.24025725E-1,1.2931089E-1],"split_indices":[197,190,59,74,212,0,141,98,112,0,218,68,9,21,0,80,88,0,112,61,44,0,0,0,0,0,0,0,0,0,0,0,0,0,0,0,0],"split_type":[0,0,0,0,0,0,0,0,0,0,0,0,0,0,0,0,0,0,0,0,0,0,0,0,0,0,0,0,0,0,0,0,0,0,0,0,0],"sum_hessian":[1.1505665E3,4.1817264E2,7.3239386E2,1.2509962E2,2.9307303E2,4.820775E1,6.841861E2,2.9227945E1,9.587167E1,8.268355E0,2.8480466E2,6.1335474E2,7.083138E1,2.6315163E1,2.9127822E0,5.5064175E1,4.08075E1,5.1069794E0,2.796977E2,1.794267E2,4.33928E2,2.0632421E1,5.019896E1,5.7816358E0,2.0533527E1,4.2679016E1,1.2385157E1,5.3237925E0,3.5483704E1,4.480141E0,2.7521753E2,8.902755E1,9.039915E1,3.3448062E2,9.94474E1,6.8341103E0,1.3798311E1],"tree_param":{"num_deleted":"0","num_feature":"222","num_nodes":"37","size_leaf_vector":"1"}},{"base_weights":[6.926979E-2,9.689189E-3,1.174875E0,7.189826E-1,-6.6893294E-2,1.3015335E0,-1.0687822E-1,-1.3241826E-1,8.5154295E-1,6.9118154E-1,-1.6083835E-1,1.373725E0,-9.109276E-2,-1.1182505E-1,9.5829576E-1,8.306936E-1,-1.3899933E-1,-2.8838763E-1,4.4279897E-1,1.4313884E0,-7.491333E-2,-1.1661246E-1,1.0347655E-1,9.342903E-2,-1.1498888E-1,-4.308465E-2,3.974689E-2,6.8742156E-2,-1.1851492E-1,6.482171E-2,1.5014936E-1],"categories":[],"categories_nodes":[],"categories_segments":[],"categories_sizes":[],"default_left":[0,0,0,0,0,0,0,0,0,0,0,0,0,0,0,0,0,0,0,0,0,0,0,0,0,0,0,0,0,0,0],"id":20,"left_children":[1,3,5,7,9,11,-1,-1,13,15,17,19,-1,-1,21,23,-1,25,27,29,-1,-1,-1,-1,-1,-1,-1,-1,-1,-1,-1],"loss_changes":[7.148203E1,5.6042717E1,1.7159782E1,2.8357826E1,6.643594E1,9.71254E0,0E0,0E0,2.1052948E1,3.1024426E1,6.398802E1,7.4008865E0,0E0,0E0,1.59372635E1,2.0984833E1,0E0,6.713374E1,5.859053E1,1.809021E0,0E0,0E0,0E0,0E0,0E0,0E0,0E0,0E0,0E0,0E0,0E0],"parents":[2147483647,0,0,1,1,2,2,3,3,4,4,5,5,8,8,9,9,10,10,11,11,14,14,15,15,17,17,18,18,19,19],"right_children":[2,4,6,8,10,12,-1,-1,14,16,18,20,-1,-1,22,24,-1,26,28,30,-1,-1,-1,-1,-1,-1,-1,-1,-1,-1,-1],"split_conditions":[6.1E0,8.1E0,1.22E2,7.7E1,-7.578403E-1,7.8E1,-1.0687822E-1,-1.3241826E-1,1E1,4.2E1,9.8E0,9.832417E1,-9.109276E-2,-1.1182505E-1,1.8E1,-5.548579E-1,-1.3899933E-1,1.1834322E2,9.2E1,1.27E2,-7.491333E-2,-1.1661246E-1,1.0347655E-1,9.342903E-2,-1.1498888E-1,-4.308465E-2,3.974689E-2,6.8742156E-2,-1.1851492E-1,6.482171E-2,1.5014936E-1],"split_indices":[118,96,40,183,55,168,0,0,134,168,96,12,0,0,111,46,0,19,197,88,0,0,0,0,0,0,0,0,0,0,0],"split_type":[0,0,0,0,0,0,0,0,0,0,0,0,0,0,0,0,0,0,0,0,0,0,0,0,0,0,0,0,0,0,0],"sum_hessian":[1.0843281E3,1.0298392E3,5.4488846E1,9.953893E1,9.3030035E2,5.1974686E1,2.5141585E0,5.516915E0,9.402202E1,1.0187543E2,8.284249E2,5.0699482E1,1.2752051E0,4.3464575E0,8.967556E1,9.603833E1,5.837098E0,6.843444E2,1.4408052E2,4.9675858E1,1.0236218E0,2.6206725E0,8.7054886E1,9.176664E1,4.2716866E0,5.669544E2,1.1738998E2,1.2576087E2,1.831964E1,4.923205E0,4.4752655E1],"tree_param":{"num_deleted":"0","num_feature":"222","num_nodes":"31","size_leaf_vector":"1"}},{"base_weights":[1.0214364E-1,2.4787065E-1,-2.9758388E-1,1.8309265E-1,1.1637827E0,-7.466979E-1,2.818771E-1,6.3241094E-2,6.725699E-1,1.3102044E0,-1.310097E-1,1.4928631E-1,-8.771064E-1,-5.271866E-1,8.534102E-1,-4.7201177E-1,2.1309358E-1,8.0035144E-1,-1.3863127E-1,5.1915425E-1,1.4113973E0,-1.1885392E-1,8.2927786E-2,-1.0176504E0,7.562953E-1,-1.4490478E-1,6.964722E-1,-5.543618E-1,1.2451799E0,-8.393571E-2,7.009626E-2,1.1862513E-2,1.24658465E-1,-1.1963439E-1,8.920614E-2,-8.692293E-2,1.0040881E-1,1.13612466E-1,1.5792601E-1,-1.3707323E-1,-2.4890978E-2,-1.1092488E-1,1.1536162E-1,1.03956E-1,-1.2531225E-1,1.16476715E-1,-1.598688E-1,-9.8925784E-2,1.3691376E-1],"categories":[],"categories_nodes":[],"categories_segments":[],"categories_sizes":[],"default_left":[0,0,0,0,0,0,0,0,0,0,0,0,0,0,0,0,0,0,0,0,0,0,0,0,0,0,0,0,0,0,0,0,0,0,0,0,0,0,0,0,0,0,0,0,0,0,0,0,0],"id":21,"left_children":[1,3,5,7,9,11,13,15,17,19,21,-1,23,25,27,29,31,33,-1,35,37,-1,-1,39,41,-1,43,45,47,-1,-1,-1,-1,-1,-1,-1,-1,-1,-1,-1,-1,-1,-1,-1,-1,-1,-1,-1,-1],"loss_changes":[6.473876E1,4.8086475E1,7.751277E1,4.462966E1,1.0330688E1,5.0262405E1,6.0758667E1,4.9253334E1,4.0487373E1,3.1281967E0,7.437482E0,0E0,3.7275223E1,6.261204E1,4.3054546E1,5.847803E1,4.666277E1,2.698983E1,0E0,5.6207614E0,1.5483093E-1,0E0,0E0,3.95177E1,1.1043269E1,0E0,1.74493E1,3.3127083E1,1.8083397E1,0E0,0E0,0E0,0E0,0E0,0E0,0E0,0E0,0E0,0E0,0E0,0E0,0E0,0E0,0E0,0E0,0E0,0E0,0E0,0E0],"parents":[2147483647,0,0,1,1,2,2,3,3,4,4,5,5,6,6,7,7,8,8,9,9,10,10,12,12,13,13,14,14,15,15,16,16,17,17,19,19,20,20,23,23,24,24,26,26,27,27,28,28],"right_children":[2,4,6,8,10,12,14,16,18,20,22,-1,24,26,28,30,32,34,-1,36,38,-1,-1,40,42,-1,44,46,48,-1,-1,-1,-1,-1,-1,-1,-1,-1,-1,-1,-1,-1,-1,-1,-1,-1,-1,-1,-1],"split_conditions":[9.668965E1,6E0,9.945098E1,1.005E2,-6.3218498E-3,9.63E1,1E0,4E0,9.5E0,-6.123616E-2,1.32E2,1.4928631E-1,7.2E1,2.2E1,7.4E1,1.81E0,3.3E1,1.0054237E2,-1.3863127E-1,-2.0217363E-2,7.4E1,-1.1885392E-1,8.2927786E-2,1.07E2,1.15E1,-1.4490478E-1,1.9E1,-5.2746173E-2,3.2E0,-8.393571E-2,7.009626E-2,1.1862513E-2,1.24658465E-1,-1.1963439E-1,8.920614E-2,-8.692293E-2,1.0040881E-1,1.13612466E-1,1.5792601E-1,-1.3707323E-1,-2.4890978E-2,-1.1092488E-1,1.1536162E-1,1.03956E-1,-1.2531225E-1,1.16476715E-1,-1.598688E-1,-9.8925784E-2,1.3691376E-1],"split_indices":[0,118,0,61,7,61,219,118,97,55,21,0,80,80,20,126,111,11,0,7,21,0,0,10,211,0,169,7,148,0,0,0,0,0,0,0,0,0,0,0,0,0,0,0,0,0,0,0,0],"split_type":[0,0,0,0,0,0,0,0,0,0,0,0,0,0,0,0,0,0,0,0,0,0,0,0,0,0,0,0,0,0,0,0,0,0,0,0,0,0,0,0,0,0,0,0,0,0,0,0,0],"sum_hessian":[1.1091078E3,8.1307007E2,2.9603772E2,7.604846E2,5.258548E1,1.6661407E2,1.2942365E2,6.1180865E2,1.4867595E2,4.7232307E1,5.3531723E0,8.5931225E0,1.5802095E2,5.3610325E1,7.581332E1,1.3335013E2,4.7845853E2,1.4056335E2,8.112591E0,6.0520735E0,4.1180233E1,2.4344788E0,2.9186935E0,1.4584857E2,1.2172376E1,3.0470634E1,2.313969E1,1.6414606E1,5.939871E1,1.0176453E2,3.1585602E1,4.3940823E2,3.905027E1,5.643741E0,1.3491962E2,1.3615203E0,4.690553E0,1.8541986E1,2.2638245E1,9.940763E1,4.6440945E1,1.8226501E0,1.0349726E1,2.0073889E1,3.065801E0,6.1595936E0,1.0255012E1,2.7551024E0,5.664361E1],"tree_param":{"num_deleted":"0","num_feature":"222","num_nodes":"49","size_leaf_vector":"1"}},{"base_weights":[1.6132443E-1,7.9979226E-2,6.549909E-1,-5.5103093E-1,1.994698E-1,-4.112111E-1,7.921787E-1,6.2222295E-2,-1.1912315E-1,2.7360728E-1,-7.201631E-1,-1.4696273E-1,1.2111862E-1,8.4887713E-1,-1.0921877E-1,-1.2938836E-1,5.434362E-1,3.3101735E-1,-5.646692E-1,2.2584587E-1,-1.3135329E-1,3.2475522E-1,1.0532804E0,8.707782E-2,-1.1888637E-1,-1.2839891E-1,3.7194755E-2,7.615626E-2,-1.5304422E-1,-1.3540356E-1,8.75875E-2,1.08416796E-1,-1.501761E-1,-9.473371E-2,1.0962836E-1],"categories":[],"categories_nodes":[],"categories_segments":[],"categories_sizes":[],"default_left":[0,0,0,0,0,0,0,0,0,0,0,0,0,0,0,0,0,0,0,0,0,0,0,0,0,0,0,0,0,0,0,0,0,0,0],"id":22,"left_children":[1,3,5,7,9,11,13,15,-1,17,19,-1,-1,21,-1,-1,23,25,27,29,-1,31,33,-1,-1,-1,-1,-1,-1,-1,-1,-1,-1,-1,-1],"loss_changes":[4.4580223E1,7.214296E1,2.3303757E1,5.9895786E1,5.5011627E1,3.3662872E1,1.5834213E1,5.2109104E1,0E0,3.6027115E1,3.4119118E1,0E0,0E0,1.422934E1,0E0,0E0,3.4404285E1,4.6592033E1,6.277834E1,2.5914099E1,0E0,5.656649E1,9.418686E0,0E0,0E0,0E0,0E0,0E0,0E0,0E0,0E0,0E0,0E0,0E0,0E0],"parents":[2147483647,0,0,1,1,2,2,3,3,4,4,5,5,6,6,7,7,9,9,10,10,13,13,16,16,17,17,18,18,19,19,21,21,22,22],"right_children":[2,4,6,8,10,12,14,16,-1,18,20,-1,-1,22,-1,-1,24,26,28,30,-1,32,34,-1,-1,-1,-1,-1,-1,-1,-1,-1,-1,-1,-1],"split_conditions":[2.5448788E1,1.35E1,6.5E0,9.9E1,1.37E1,5.4E0,4.4E0,9.8456696E1,-1.1912315E-1,2.2111193E1,9.4333336E1,-1.4696273E-1,1.2111862E-1,3.6321318E0,-1.0921877E-1,-1.2938836E-1,9.4E1,2.6E1,-1.6019284E0,6.95E1,-1.3135329E-1,9.1E0,-4.4E0,8.707782E-2,-1.1888637E-1,-1.2839891E-1,3.7194755E-2,7.615626E-2,-1.5304422E-1,-1.3540356E-1,8.75875E-2,1.08416796E-1,-1.501761E-1,-9.473371E-2,1.0962836E-1],"split_indices":[52,82,140,105,213,118,154,9,0,54,31,0,0,13,0,0,10,218,26,28,0,175,47,0,0,0,0,0,0,0,0,0,0,0,0],"split_type":[0,0,0,0,0,0,0,0,0,0,0,0,0,0,0,0,0,0,0,0,0,0,0,0,0,0,0,0,0,0,0,0,0,0,0],"sum_hessian":[1.1104418E3,9.5434845E2,1.5609328E2,1.513711E2,8.0297736E2,1.7567093E1,1.3852618E2,7.777377E1,7.359731E1,7.437236E2,5.925382E1,1.0688389E1,6.878705E0,1.3501329E2,3.512883E0,1.9927483E1,5.7846294E1,6.9662006E2,4.710348E1,2.3078756E1,3.6175064E1,3.8607185E1,9.6406105E1,4.9070984E1,8.77531E0,1.6467867E1,6.801522E2,1.9936905E1,2.7166576E1,6.4118514E0,1.6666904E1,2.7556442E1,1.1050745E1,1.5861255E0,9.4819984E1],"tree_param":{"num_deleted":"0","num_feature":"222","num_nodes":"35","size_leaf_vector":"1"}},{"base_weights":[6.812868E-2,-4.6493235E-1,1.788516E-1,6.8722576E-1,-8.0759895E-1,2.8077474E-1,-4.4067943E-1,-1.3843745E-1,8.939791E-1,-1.2279865E0,7.266377E-3,8.703096E-1,1.9496742E-1,-1.1179056E0,8.640032E-2,1.029946E0,-1.0644483E-1,-1.3980727E-1,4.9119657E-1,7.655102E-1,-1.1890661E-1,1.0068072E0,-4.360404E-1,2.502449E-1,-9.0522486E-1,-1.2873065E-1,8.990329E-2,4.9364883E-1,-8.507899E-1,-8.7389156E-2,1.112861E-1,1.11424826E-1,-1.10065E-1,-1.0595655E-1,1.0959121E-1,-1.0861453E-1,1.073774E-1,8.842009E-2,-1.368894E-1,3.0234937E-2,-1.2418448E-1,-1.3656056E-1,1.06349826E-1,-1.2538245E-1,7.289652E-2,9.3978696E-2,-1.3369247E-1],"categories":[],"categories_nodes":[],"categories_segments":[],"categories_sizes":[],"default_left":[0,0,0,0,0,0,0,0,0,0,0,0,0,0,0,0,0,0,0,0,0,0,0,0,0,0,0,0,0,0,0,0,0,0,0,0,0,0,0,0,0,0,0,0,0,0,0],"id":23,"left_children":[1,3,5,7,9,11,13,-1,15,17,19,21,23,25,27,29,-1,-1,31,33,-1,35,37,39,41,-1,-1,43,45,-1,-1,-1,-1,-1,-1,-1,-1,-1,-1,-1,-1,-1,-1,-1,-1,-1,-1],"loss_changes":[5.9413574E1,6.892121E1,5.2726936E1,1.8470905E1,4.5887344E1,3.6049202E1,4.2245293E1,0E0,1.09998455E1,2.6522552E1,4.315745E1,1.6608864E1,3.8315414E1,1.8839058E1,2.6117298E1,6.542591E0,0E0,0E0,9.849518E0,1.8717402E1,0E0,1.2716072E1,1.2635339E1,4.6798306E1,2.8805052E1,0E0,0E0,2.0473873E1,1.9328903E1,0E0,0E0,0E0,0E0,0E0,0E0,0E0,0E0,0E0,0E0,0E0,0E0,0E0,0E0,0E0,0E0,0E0,0E0],"parents":[2147483647,0,0,1,1,2,2,3,3,4,4,5,5,6,6,8,8,9,9,10,10,11,11,12,12,13,13,14,14,15,15,18,18,19,19,21,21,22,22,23,23,24,24,27,27,28,28],"right_children":[2,4,6,8,10,12,14,-1,16,18,20,22,24,26,28,30,-1,-1,32,34,-1,36,38,40,42,-1,-1,44,46,-1,-1,-1,-1,-1,-1,-1,-1,-1,-1,-1,-1,-1,-1,-1,-1,-1,-1],"split_conditions":[-1.0030162E-2,7.7E1,1.025E2,2.0275862E1,1.09333336E2,9.304661E1,4.3E0,-1.3843745E-1,4.6159717E-1,1.9E0,1.415E2,1.35E2,-3.1164275E-3,1.35E2,1.155E1,-1.2231644E0,-1.0644483E-1,-1.3980727E-1,-1.9236432E0,1.8607428E1,-1.1890661E-1,8.498707E1,-8.444735E-3,1.58E2,1.1E2,-1.2873065E-1,8.990329E-2,1.0054237E2,1.6E1,-8.7389156E-2,1.112861E-1,1.11424826E-1,-1.10065E-1,-1.0595655E-1,1.0959121E-1,-1.0861453E-1,1.073774E-1,8.842009E-2,-1.368894E-1,3.0234937E-2,-1.2418448E-1,-1.3656056E-1,1.06349826E-1,-1.2538245E-1,7.289652E-2,9.3978696E-2,-1.3369247E-1],"split_indices":[7,39,108,51,39,8,118,0,6,67,44,72,17,10,213,46,0,0,17,58,0,19,7,49,20,0,0,11,51,0,0,0,0,0,0,0,0,0,0,0,0,0,0,0,0,0,0],"split_type":[0,0,0,0,0,0,0,0,0,0,0,0,0,0,0,0,0,0,0,0,0,0,0,0,0,0,0,0,0,0,0,0,0,0,0,0,0,0,0,0,0,0,0,0,0,0,0],"sum_hessian":[1.0042242E3,1.72164E2,8.320602E2,3.9235565E1,1.3292844E2,7.149808E2,1.1707941E2,3.0436285E0,3.6191936E1,8.735511E1,4.5573326E1,8.968205E1,6.252987E2,5.075069E1,6.632871E1,3.4285694E1,1.9062438E0,7.966072E1,7.6943913E0,2.8114367E1,1.7458961E1,8.140547E1,8.276581E0,5.961201E2,2.9178593E1,4.7152172E1,3.5985198E0,4.6566765E1,1.9761948E1,1.0327492E0,3.3252945E1,5.745586E0,1.9488053E0,3.971221E0,2.4143145E1,2.0520568E0,7.935342E1,3.4483638E0,4.828217E0,5.767762E2,1.9343933E1,2.3896751E1,5.2818418E0,5.012842E0,4.1553925E1,4.0204115E0,1.5741536E1],"tree_param":{"num_deleted":"0","num_feature":"222","num_nodes":"47","size_leaf_vector":"1"}},{"base_weights":[7.926578E-3,3.1355235E-1,-2.0394294E-1,-1.2361162E-1,3.8281918E-1,2.6722097E-1,-4.5607847E-1,-6.375238E-1,4.6567592E-1,3.992808E-1,-1.3830015E-1,6.30276E-1,-6.64399E-1,-1.3749605E-1,9.080429E-2,-1.2793425E-1,5.256986E-1,-1.1874335E-1,5.036571E-1,-1.3745765E-1,8.1290835E-1,-3.0511755E-1,-1.2977341E0,5.6170344E-2,-1.3155867E-1,8.659842E-2,1.1464975E-2,-1.4127969E-2,1.1235497E-1,1.22123316E-1,-5.2389424E-2,8.614645E-2,-1.368836E-1],"categories":[],"categories_nodes":[],"categories_segments":[],"categories_sizes":[],"default_left":[0,0,0,0,0,0,0,0,0,0,0,0,0,0,0,0,0,0,0,0,0,0,0,0,0,0,0,0,0,0,0,0,0],"id":24,"left_children":[1,3,5,-1,7,9,11,13,15,17,-1,19,21,-1,-1,-1,23,-1,25,-1,27,29,31,-1,-1,-1,-1,-1,-1,-1,-1,-1,-1],"loss_changes":[6.275774E1,4.3064796E1,6.812294E1,0E0,3.2471626E1,4.4174538E1,8.4887764E1,3.430786E1,3.760102E1,3.1421217E1,0E0,2.3295301E1,7.097922E1,0E0,0E0,0E0,2.3382408E1,0E0,2.46128E1,0E0,1.6799728E1,6.790867E1,1.8562347E1,0E0,0E0,0E0,0E0,0E0,0E0,0E0,0E0,0E0,0E0],"parents":[2147483647,0,0,1,1,2,2,4,4,5,5,6,6,7,7,8,8,9,9,11,11,12,12,16,16,18,18,20,20,21,21,22,22],"right_children":[2,4,6,-1,8,10,12,14,16,18,-1,20,22,-1,-1,-1,24,-1,26,-1,28,30,32,-1,-1,-1,-1,-1,-1,-1,-1,-1,-1],"split_conditions":[1.165E1,7.6E0,8.4E1,-1.2361162E-1,-1.5E0,1.5E1,5.85E1,1.0055E2,6.3E1,1.8E1,-1.3830015E-1,1.17E2,4.3705883E0,-1.3749605E-1,9.080429E-2,-1.2793425E-1,8.3E0,-1.1874335E-1,2.5E1,-1.3745765E-1,1.14E2,1.2103448E1,9.25E1,5.6170344E-2,-1.3155867E-1,8.659842E-2,1.1464975E-2,-1.4127969E-2,1.1235497E-1,1.22123316E-1,-5.2389424E-2,8.614645E-2,-1.368836E-1],"split_indices":[217,211,182,0,46,135,29,64,182,189,0,72,43,0,0,0,141,0,189,0,41,50,60,0,0,0,0,0,0,0,0,0,0],"split_type":[0,0,0,0,0,0,0,0,0,0,0,0,0,0,0,0,0,0,0,0,0,0,0,0,0,0,0,0,0,0,0,0,0],"sum_hessian":[9.6720233E2,3.957891E2,5.714132E2,1.6213251E1,3.7957587E2,1.9916852E2,3.722447E2,2.8005585E1,3.5157028E2,1.8511282E2,1.4055692E1,5.9570374E1,3.1267432E2,1.9034182E1,8.971402E0,1.1015196E1,3.4055508E2,1.0784961E1,1.7432787E2,4.428616E0,5.5141758E1,2.0044604E2,1.1222827E2,3.3470514E2,5.8499427E0,8.9624344E1,8.470352E1,1.3676684E1,4.1465073E1,2.4554348E1,1.758917E2,3.2234542E0,1.09004814E2],"tree_param":{"num_deleted":"0","num_feature":"222","num_nodes":"33","size_leaf_vector":"1"}},{"base_weights":[1.2788641E-1,5.751368E-1,2.934449E-2,-6.4365685E-1,6.963554E-1,-2.8385916E-1,2.674793E-1,-1.3972643E-1,1.0291695E-1,-1.3375644E-1,7.645296E-1,-9.418715E-2,-1.204976E0,3.2002866E-1,-1.546747E-1,-1.2208853E-1,8.194097E-1,-9.025665E-1,8.176326E-2,9.181418E-2,-1.3587998E-1,6.9730276E-1,8.037394E-2,8.687363E-2,-1.1724197E-1,1.157406E-1,-1.1874186E-1,-8.5293956E-2,2.847135E-2,8.118401E-2,-6.1669197E-2,-1.4624618E-1,2.6314458E-2],"categories":[],"categories_nodes":[],"categories_segments":[],"categories_sizes":[],"default_left":[0,0,0,0,0,0,0,0,0,0,0,0,0,0,0,0,0,0,0,0,0,0,0,0,0,0,0,0,0,0,0,0,0],"id":25,"left_children":[1,3,5,7,9,11,13,-1,-1,-1,15,17,19,21,-1,-1,23,25,27,-1,-1,29,31,-1,-1,-1,-1,-1,-1,-1,-1,-1,-1],"loss_changes":[4.5245827E1,2.783469E1,6.292301E1,2.3232555E1,2.4467422E1,6.3556755E1,4.6179615E1,0E0,0E0,0E0,1.889524E1,4.3212143E1,2.1542885E1,4.2125763E1,0E0,0E0,1.6779213E1,3.323488E1,4.7666115E1,0E0,0E0,2.77566E1,8.115433E1,0E0,0E0,0E0,0E0,0E0,0E0,0E0,0E0,0E0,0E0],"parents":[2147483647,0,0,1,1,2,2,3,3,4,4,5,5,6,6,10,10,11,11,12,12,13,13,16,16,17,17,18,18,21,21,22,22],"right_children":[2,4,6,8,10,12,14,-1,-1,-1,16,18,20,22,-1,-1,24,26,28,-1,-1,30,32,-1,-1,-1,-1,-1,-1,-1,-1,-1,-1],"split_conditions":[3.5E1,2.1E1,9.7118645E1,1.2012052E1,-4.8788762E-1,3.35E0,1.38E0,-1.3972643E-1,1.0291695E-1,-1.3375644E-1,1.7E1,8.4E-1,6E1,9.6118645E1,-1.546747E-1,-1.2208853E-1,8.9E1,7.1E0,5.1E1,9.181418E-2,-1.3587998E-1,1.0898811E0,9.8528305E1,8.687363E-2,-1.1724197E-1,1.157406E-1,-1.1874186E-1,-8.5293956E-2,2.847135E-2,8.118401E-2,-6.1669197E-2,-1.4624618E-1,2.6314458E-2],"split_indices":[197,189,19,13,17,153,126,0,0,0,113,125,11,4,0,0,218,97,218,0,0,6,1,0,0,0,0,0,0,0,0,0,0],"split_type":[0,0,0,0,0,0,0,0,0,0,0,0,0,0,0,0,0,0,0,0,0,0,0,0,0,0,0,0,0,0,0,0,0],"sum_hessian":[1.025996E3,1.8436873E2,8.4162726E2,1.6288273E1,1.6808044E2,3.6343378E2,4.7819345E2,1.134299E1,4.9452825E0,4.8472395E0,1.6323322E2,3.0228992E2,6.1143856E1,4.655328E2,1.2660638E1,3.8191836E0,1.5941403E2,5.3296593E1,2.4899333E2,3.7950308E0,5.7348824E1,1.80101E2,2.8543182E2,1.5611185E2,3.3021734E0,6.1024146E0,4.719418E1,4.3847523E1,2.0514581E2,1.6601233E2,1.4088677E1,2.9490423E1,2.5594139E2],"tree_param":{"num_deleted":"0","num_feature":"222","num_nodes":"33","size_leaf_vector":"1"}},{"base_weights":[1.3578367E-1,7.681951E-2,8.293392E-1,1.5996988E-1,-7.292163E-1,9.216737E-1,-1.1509565E-1,-4.8122835E-1,2.5062606E-1,-1.2617843E-1,6.3415474E-1,9.9363446E-1,-1.07897274E-1,1.3072851E-1,-1.2219377E-1,-1.7970654E-1,3.4629312E-1,1.1307272E0,-1.14009134E-1,1.06512E0,-9.080603E-2,5.879575E-2,-1.4724718E-1,6.499128E-2,-9.1268845E-2,-1.3166082E-1,3.817766E-2,6.9647744E-2,1.2628317E-1,-8.679831E-2,1.108256E-1],"categories":[],"categories_nodes":[],"categories_segments":[],"categories_sizes":[],"default_left":[0,0,0,0,0,0,0,0,0,0,0,0,0,0,0,0,0,0,0,0,0,0,0,0,0,0,0,0,0,0,0],"id":26,"left_children":[1,3,5,7,9,11,-1,13,15,-1,17,19,-1,21,-1,23,25,27,-1,29,-1,-1,-1,-1,-1,-1,-1,-1,-1,-1,-1],"loss_changes":[4.0730644E1,6.1809227E1,1.5334206E1,4.8670944E1,6.3430065E1,1.1889652E1,0E0,4.7211838E1,3.0214993E1,0E0,2.3222622E1,1.0897934E1,0E0,4.3194637E1,0E0,8.1998055E1,3.587953E1,2.6510048E-1,0E0,6.871048E0,0E0,0E0,0E0,0E0,0E0,0E0,0E0,0E0,0E0,0E0,0E0],"parents":[2147483647,0,0,1,1,2,2,3,3,4,4,5,5,7,7,8,8,10,10,11,11,13,13,15,15,16,16,17,17,19,19],"right_children":[2,4,6,8,10,12,-1,14,16,-1,18,20,-1,22,-1,24,26,28,-1,30,-1,-1,-1,-1,-1,-1,-1,-1,-1,-1,-1],"split_conditions":[5.7E0,7.7E0,1.05E2,1.625E1,2.3547195E1,4.7140452E-1,-1.1509565E-1,1.23E2,4.4E1,-1.2617843E-1,8.9E0,8.925E1,-1.07897274E-1,1.6E1,-1.2219377E-1,9.1E1,-1.6214658E-1,8.6E1,-1.14009134E-1,-1.5004507E0,-9.080603E-2,5.879575E-2,-1.4724718E-1,6.499128E-2,-9.1268845E-2,-1.3166082E-1,3.817766E-2,6.9647744E-2,1.2628317E-1,-8.679831E-2,1.108256E-1],"split_indices":[124,141,18,58,58,91,0,41,218,0,97,29,0,58,0,182,7,20,0,36,0,0,0,0,0,0,0,0,0,0,0],"split_type":[0,0,0,0,0,0,0,0,0,0,0,0,0,0,0,0,0,0,0,0,0,0,0,0,0,0,0,0,0,0,0],"sum_hessian":[9.9654083E2,9.1948E2,7.7060875E1,8.342233E2,8.525665E1,7.413862E1,2.9222553E0,1.0280312E2,7.314202E2,6.13617E1,2.3894955E1,7.20504E1,2.0882185E0,5.674512E1,4.6058E1,1.3286848E2,5.985517E2,1.89531E1,4.9418554E0,6.986409E1,2.1863117E0,4.464557E1,1.2099553E1,6.237885E1,7.048964E1,1.1750921E1,5.868008E2,5.8838997E0,1.30692005E1,1.1075629E0,6.875652E1],"tree_param":{"num_deleted":"0","num_feature":"222","num_nodes":"31","size_leaf_vector":"1"}},{"base_weights":[7.373617E-2,1.4736439E-2,9.658776E-1,-4.7136802E-2,8.7058306E-1,-1.05846584E-1,1.0961294E0,-8.158668E-1,6.090412E-2,9.9811906E-1,-1.1833089E-1,-7.284309E-2,1.1446358E0,1.0725851E-1,-1.0939654E0,1.1198407E-1,-1.5008992E-1,-7.8385875E-2,1.0551078E0,1.1926826E0,3.8905196E-2,-1.1980821E-1,9.3618356E-2,-1.1069741E-2,3.8946126E-2,1.147198E-1,3.347136E-2,1.227747E-1,5.84353E-2],"categories":[],"categories_nodes":[],"categories_segments":[],"categories_sizes":[],"default_left":[0,0,0,0,0,0,0,0,0,0,0,0,0,0,0,0,0,0,0,0,0,0,0,0,0,0,0,0,0],"id":27,"left_children":[1,3,5,7,9,-1,11,13,15,17,-1,-1,19,-1,21,23,-1,-1,25,27,-1,-1,-1,-1,-1,-1,-1,-1,-1],"loss_changes":[5.033634E1,4.760735E1,1.6801792E1,6.970274E1,1.7058205E1,0E0,5.80999E0,5.5482986E1,5.890237E1,6.6776314E0,0E0,0E0,1.5384521E0,0E0,2.0278992E1,4.4151E1,0E0,0E0,3.347847E0,3.78479E-1,0E0,0E0,0E0,0E0,0E0,0E0,0E0,0E0,0E0],"parents":[2147483647,0,0,1,1,2,2,3,3,4,4,6,6,7,7,8,8,9,9,12,12,14,14,15,15,18,18,19,19],"right_children":[2,4,6,8,10,-1,12,14,16,18,-1,-1,20,-1,22,24,-1,-1,26,28,-1,-1,-1,-1,-1,-1,-1,-1,-1],"split_conditions":[5E-2,3.9457626E1,9.82E1,1.3E1,1.15E2,-1.05846584E-1,3E-1,2.8E-1,2.0067797E1,2.3570225E0,-1.1833089E-1,-7.284309E-2,1.5E0,1.0725851E-1,1.68E0,1.7983051E1,-1.5008992E-1,-7.8385875E-2,9.586207E1,-5.77886E-1,3.8905196E-2,-1.1980821E-1,9.3618356E-2,-1.1069741E-2,3.8946126E-2,1.147198E-1,3.347136E-2,1.227747E-1,5.84353E-2],"split_indices":[99,51,61,86,31,0,163,126,50,23,0,0,192,0,126,50,0,0,8,46,0,0,0,0,0,0,0,0,0],"split_type":[0,0,0,0,0,0,0,0,0,0,0,0,0,0,0,0,0,0,0,0,0,0,0,0,0,0,0,0,0],"sum_hessian":[9.555787E2,8.9725714E2,5.832153E1,8.376448E2,5.961242E1,3.0949078E0,5.522662E1,1.02412254E2,7.352325E2,5.6611195E1,3.0012245E0,1.0671877E0,5.415943E1,1.2778938E1,8.9633316E1,7.128466E2,2.2385883E1,1.359096E0,5.5252098E1,5.0377483E1,3.78195E0,8.565056E1,3.9827557E0,3.958053E2,3.1704132E2,4.84643E1,6.787799E0,4.6669228E1,3.7082572E0],"tree_param":{"num_deleted":"0","num_feature":"222","num_nodes":"29","size_leaf_vector":"1"}},{"base_weights":[4.889137E-2,-1.1044471E-4,1.0264711E0,8.7750286E-2,-6.894126E-1,1.1453432E0,-9.345854E-2,-1.26755135E-2,6.258001E-1,-1.0649908E0,3.6577827E-1,-7.39316E-2,1.2183481E0,1.15806505E-1,-8.0759245E-1,8.1297225E-1,-2.9684436E-1,6.793592E-2,-1.2077291E0,9.886064E-1,-1.11778595E-1,4.4680886E-2,1.2788218E-1,6.7239143E-3,1.2449008E-1,-9.642332E-2,9.9486515E-2,-1.0988903E-1,8.919572E-2,9.761169E-2,-1.2183847E-1,8.57679E-2,-1.3432583E-1,3.7717868E-2,1.13666594E-1],"categories":[],"categories_nodes":[],"categories_segments":[],"categories_sizes":[],"default_left":[0,0,0,0,0,0,0,0,0,0,0,0,0,0,0,0,0,0,0,0,0,0,0,0,0,0,0,0,0,0,0,0,0,0,0],"id":28,"left_children":[1,3,5,7,9,11,-1,13,15,17,19,-1,21,23,25,27,29,-1,31,33,-1,-1,-1,-1,-1,-1,-1,-1,-1,-1,-1,-1,-1,-1,-1],"loss_changes":[4.4302536E1,5.345777E1,1.1361305E1,4.231105E1,3.993719E1,6.6893425E0,0E0,6.7576096E1,2.151054E1,1.920832E1,2.5997242E1,0E0,1.3359909E0,3.115564E1,2.6951435E1,1.648233E1,2.6415226E1,0E0,2.0361801E1,1.336977E0,0E0,0E0,0E0,0E0,0E0,0E0,0E0,0E0,0E0,0E0,0E0,0E0,0E0,0E0,0E0],"parents":[2147483647,0,0,1,1,2,2,3,3,4,4,5,5,7,7,8,8,9,9,10,10,12,12,13,13,14,14,15,15,16,16,18,18,19,19],"right_children":[2,4,6,8,10,12,-1,14,16,18,20,-1,22,24,26,28,30,-1,32,34,-1,-1,-1,-1,-1,-1,-1,-1,-1,-1,-1,-1,-1,-1,-1],"split_conditions":[6.1E0,-7.756945E-1,7.6E1,3.3962784E0,1.7570702E0,-1.3438727E-1,-9.345854E-2,7.4E0,8.95E1,1.5713484E0,1.084E2,-7.39316E-2,1.31E2,7E-1,1.07E2,-5.464286E0,9E0,6.793592E-2,-1.7E1,7.05E1,-1.11778595E-1,4.4680886E-2,1.2788218E-1,6.7239143E-3,1.2449008E-1,-9.642332E-2,9.9486515E-2,-1.0988903E-1,8.919572E-2,9.761169E-2,-1.2183847E-1,8.57679E-2,-1.3432583E-1,3.7717868E-2,1.13666594E-1],"split_indices":[118,46,189,53,56,55,0,142,200,33,42,0,88,214,20,47,168,0,27,29,0,0,0,0,0,0,0,0,0,0,0,0,0,0,0],"split_type":[0,0,0,0,0,0,0,0,0,0,0,0,0,0,0,0,0,0,0,0,0,0,0,0,0,0,0,0,0,0,0,0,0,0,0],"sum_hessian":[9.238326E2,8.8068744E2,4.3145134E1,7.81897E2,9.879048E1,4.1071487E1,2.0736458E0,6.597353E2,1.2216169E2,7.2851036E1,2.5939442E1,1.1912735E0,3.9880215E1,5.686749E2,9.1060326E1,1.0165776E2,2.050393E1,5.2260466E0,6.762499E1,1.8504524E1,7.434919E0,3.5083382E0,3.6371876E1,5.4623834E2,2.243659E1,8.420741E1,6.8529143E0,3.5208738E0,9.813689E1,8.585377E0,1.1918553E1,3.8360958E0,6.3788895E1,4.2989664E0,1.4205557E1],"tree_param":{"num_deleted":"0","num_feature":"222","num_nodes":"35","size_leaf_vector":"1"}},{"base_weights":[1.8770987E-1,2.1315883E-1,-1.23088576E-1,8.459094E-2,4.881661E-1,2.0586015E-1,-6.4306414E-1,5.8307135E-1,-1.2115145E-1,9.765845E-2,7.834985E-1,-1.298793E-1,-2.4145447E-2,6.747725E-1,-7.988509E-1,6.241558E-2,-3.348491E-3,-1.1779759E-1,9.173067E-2,8.643267E-2,-8.694678E-2,-1.1490526E-1,7.23826E-2,-1.1511202E-1,8.286238E-2],"categories":[],"categories_nodes":[],"categories_segments":[],"categories_sizes":[],"default_left":[0,0,0,0,0,0,0,0,0,0,0,0,0,0,0,0,0,0,0,0,0,0,0,0,0],"id":29,"left_children":[1,3,-1,5,7,9,11,13,-1,15,17,-1,19,21,23,-1,-1,-1,-1,-1,-1,-1,-1,-1,-1],"loss_changes":[3.5919804E1,3.4295307E1,0E0,5.863423E1,5.0577835E1,3.548815E1,3.850259E1,3.7731606E1,0E0,3.3190353E1,2.4604805E1,0E0,3.8201565E1,2.5503624E1,1.1687044E1,0E0,0E0,0E0,0E0,0E0,0E0,0E0,0E0,0E0,0E0],"parents":[2147483647,0,0,1,1,3,3,4,4,5,5,6,6,7,7,9,9,10,10,12,12,13,13,14,14],"right_children":[2,4,-1,6,8,10,12,14,-1,16,18,-1,20,22,24,-1,-1,-1,-1,-1,-1,-1,-1,-1,-1],"split_conditions":[8.3E0,9.929661E1,-1.23088576E-1,9.795378E1,7.675394E-1,9.8E0,1.0275E2,1.26E1,-1.2115145E-1,9.304661E1,-1.7862676E-2,-1.298793E-1,1.0722458E2,3E-1,3.7E1,6.241558E-2,-3.348491E-3,-1.1779759E-1,9.173067E-2,8.643267E-2,-8.694678E-2,-1.1490526E-1,7.23826E-2,-1.1511202E-1,8.286238E-2],"split_indices":[141,9,0,2,15,96,18,212,0,8,55,0,19,161,111,0,0,0,0,0,0,0,0,0,0],"split_type":[0,0,0,0,0,0,0,0,0,0,0,0,0,0,0,0,0,0,0,0,0,0,0,0,0],"sum_hessian":[9.866914E2,9.7013727E2,1.6554085E1,6.619694E2,3.0816788E2,5.680214E2,9.394797E1,2.924929E2,1.5675006E1,4.7939206E2,8.8629395E1,4.5084053E1,4.886391E1,2.747714E2,1.772148E1,9.484825E1,3.845438E2,5.161674E0,8.346772E1,2.3812944E1,2.5050968E1,6.609348E0,2.6816205E2,1.480879E1,2.912689E0],"tree_param":{"num_deleted":"0","num_feature":"222","num_nodes":"25","size_leaf_vector":"1"}},{"base_weights":[2.2683796E-2,3.486117E-1,-1.2912033E-1,4.0199184E-1,-1.3050266E-1,-2.621161E-1,5.546948E-1,1.7399767E-1,9.7154975E-1,-8.633553E-2,-8.7317914E-1,-1.1953509E-1,8.301016E-1,2.8822476E-1,-1.5675199E-1,1.0566876E0,-1.0377472E-1,-3.6072552E-1,4.7137892E-1,-1.1754465E0,7.574531E-1,9.3188024E-1,-1.0419947E-1,1.067472E-1,1.1711175E-2,-1.0326847E-1,1.12688184E-1,-6.1555088E-2,2.7878476E-2,6.246667E-2,-1.21475935E-1,-1.257941E-1,8.62969E-2,-1.1627801E-1,1.3079457E-1,1.016204E-1,-8.7393455E-2],"categories":[],"categories_nodes":[],"categories_segments":[],"categories_sizes":[],"default_left":[0,0,0,0,0,0,0,0,0,0,0,0,0,0,0,0,0,0,0,0,0,0,0,0,0,0,0,0,0,0,0,0,0,0,0,0,0],"id":30,"left_children":[1,3,5,7,-1,9,11,13,15,17,19,-1,21,23,-1,25,-1,27,29,31,33,35,-1,-1,-1,-1,-1,-1,-1,-1,-1,-1,-1,-1,-1,-1,-1],"loss_changes":[4.2869877E1,2.4826324E1,5.3915504E1,3.4562473E1,0E0,5.3164112E1,4.7545525E1,3.869013E1,1.4138832E1,5.9245216E1,5.5412903E1,0E0,1.698497E1,2.4040653E1,0E0,1.1963425E1,0E0,4.242863E1,3.3772392E1,1.6843964E1,2.0449581E1,1.310643E1,0E0,0E0,0E0,0E0,0E0,0E0,0E0,0E0,0E0,0E0,0E0,0E0,0E0,0E0,0E0],"parents":[2147483647,0,0,1,1,2,2,3,3,5,5,6,6,7,7,8,8,9,9,10,10,12,12,13,13,15,15,17,17,18,18,19,19,20,20,21,21],"right_children":[2,4,6,8,-1,10,12,14,16,18,20,-1,22,24,-1,26,-1,28,30,32,34,36,-1,-1,-1,-1,-1,-1,-1,-1,-1,-1,-1,-1,-1,-1,-1],"split_conditions":[8.0583336E1,1.255E2,3.4542077E0,1.13E2,-1.3050266E-1,1.01E2,7.525E1,6.3E1,4.4322947E-1,1.09E0,1.03E1,-1.1953509E-1,2.5E1,-1.5E0,-1.5675199E-1,1.6380785E1,-1.0377472E-1,2.6E1,6.1846585E0,1.35E2,4.3E1,2.9479963E-1,-1.0419947E-1,1.067472E-1,1.1711175E-2,-1.0326847E-1,1.12688184E-1,-6.1555088E-2,2.7878476E-2,6.246667E-2,-1.21475935E-1,-1.257941E-1,8.62969E-2,-1.1627801E-1,1.3079457E-1,1.016204E-1,-8.7393455E-2],"split_indices":[38,44,53,48,0,110,28,20,35,125,175,0,80,16,0,52,0,111,23,10,168,25,0,0,0,0,0,0,0,0,0,0,0,0,0,0,0],"split_type":[0,0,0,0,0,0,0,0,0,0,0,0,0,0,0,0,0,0,0,0,0,0,0,0,0,0,0,0,0,0,0,0,0,0,0,0,0],"sum_hessian":[8.645474E2,2.7430664E2,5.9024084E2,2.6646204E2,7.8446016E0,4.946522E2,9.558863E1,1.9122151E2,7.5240524E1,3.850334E2,1.0961879E2,1.2543281E1,8.304535E1,1.8023434E2,1.098717E1,7.2636856E1,2.603666E0,2.5830374E2,1.2672967E2,9.271207E1,1.6906723E1,7.9239624E1,3.805726E0,3.1508137E1,1.487262E2,1.915289E0,7.0721565E1,1.8473137E2,7.357236E1,1.1674577E2,9.983894E0,8.947395E1,3.2381127E0,3.519102E0,1.3387621E1,7.61223E1,3.117323E0],"tree_param":{"num_deleted":"0","num_feature":"222","num_nodes":"37","size_leaf_vector":"1"}},{"base_weights":[1.4110087E-1,-2.0663555E-1,2.8471872E-1,2.6696026E-1,-6.2568194E-1,8.692351E-2,5.4892087E-1,-1.2086537E-1,3.9545292E-1,-1.3049303E-1,-3.01917E-1,2.265782E-1,-5.90034E-1,-1.22954905E-1,6.023063E-1,-1.07636966E-1,5.266954E-1,-1.3707551E-1,-3.9751943E-2,-3.5554352E-1,3.807899E-1,3.460463E-1,-1.0821356E0,6.513689E-1,-1.2753408E-1,6.28685E-2,-1.21147774E-1,-1.1592709E-1,3.0035784E-2,9.626592E-2,-9.0018466E-2,-1.2379348E-1,4.673195E-2,-1.3131486E-1,9.300443E-2,-1.2870581E-1,8.996936E-2,-1.2241808E-1,6.923187E-2],"categories":[],"categories_nodes":[],"categories_segments":[],"categories_sizes":[],"default_left":[0,0,0,0,0,0,0,0,0,0,0,0,0,0,0,0,0,0,0,0,0,0,0,0,0,0,0,0,0,0,0,0,0,0,0,0,0,0,0],"id":31,"left_children":[1,3,5,7,9,11,13,-1,15,-1,17,19,21,-1,23,-1,25,-1,27,29,31,33,35,37,-1,-1,-1,-1,-1,-1,-1,-1,-1,-1,-1,-1,-1,-1,-1],"loss_changes":[4.6601852E1,5.4342472E1,3.4441254E1,2.4908735E1,3.152266E1,3.592742E1,2.7549812E1,0E0,2.3608242E1,0E0,2.7850288E1,2.8375425E1,3.0328453E1,0E0,2.6146835E1,0E0,2.0295376E1,0E0,3.1189482E1,4.8538773E1,3.548077E1,2.3665815E1,1.8565372E1,2.1467201E1,0E0,0E0,0E0,0E0,0E0,0E0,0E0,0E0,0E0,0E0,0E0,0E0,0E0,0E0,0E0],"parents":[2147483647,0,0,1,1,2,2,3,3,4,4,5,5,6,6,8,8,10,10,11,11,12,12,14,14,16,16,18,18,19,19,20,20,21,21,22,22,23,23],"right_children":[2,4,6,8,10,12,14,-1,16,-1,18,20,22,-1,24,-1,26,-1,28,30,32,34,36,38,-1,-1,-1,-1,-1,-1,-1,-1,-1,-1,-1,-1,-1,-1,-1],"split_conditions":[9.82E1,9.7716835E1,4.3E0,8.2021996E1,9.9E1,3.5714322E-1,7.9E0,-1.2086537E-1,7.6E-1,-1.3049303E-1,1.37E2,4.2E1,1.03E2,-1.22954905E-1,9E1,-1.07636966E-1,8.387917E0,-1.3707551E-1,4.7E1,5.9E1,-1.657635E-2,1.1025E2,1.4E2,5.7E1,-1.2753408E-1,6.28685E-2,-1.21147774E-1,-1.1592709E-1,3.0035784E-2,9.626592E-2,-9.0018466E-2,-1.2379348E-1,4.673195E-2,-1.3131486E-1,9.300443E-2,-1.2870581E-1,8.996936E-2,-1.2241808E-1,6.923187E-2],"split_indices":[61,9,119,19,4,15,215,0,125,0,89,218,48,0,218,0,23,0,218,20,7,49,12,182,0,0,0,0,0,0,0,0,0,0,0,0,0,0,0],"split_type":[0,0,0,0,0,0,0,0,0,0,0,0,0,0,0,0,0,0,0,0,0,0,0,0,0,0,0,0,0,0,0,0,0,0,0,0,0,0,0],"sum_hessian":[9.30957E2,2.7198102E2,6.5897595E2,1.2785051E2,1.4413052E2,3.776082E2,2.813678E2,9.567749E0,1.1828276E2,4.5546005E1,9.858452E1,3.1358224E2,6.4025955E1,7.557791E0,2.7381E2,9.094199E0,1.0918856E2,1.8585098E1,7.999942E1,6.540069E1,2.4818155E2,2.2163374E1,4.1862583E1,2.6747403E2,6.335959E0,1.037398E2,5.4487615E0,1.8079546E1,6.1919872E1,1.8896852E1,4.6503834E1,1.1918245E1,2.3626329E2,5.4450135E0,1.671836E1,3.825732E1,3.605263E0,5.0977106E0,2.623763E2],"tree_param":{"num_deleted":"0","num_feature":"222","num_nodes":"39","size_leaf_vector":"1"}},{"base_weights":[1.6500166E-1,-2.3643377E-1,2.6122525E-1,5.8942217E-1,-6.2036663E-1,5.761301E-1,1.5025103E-1,7.867911E-1,-1.07614376E-1,-8.410235E-1,1.0065855E0,7.2115034E-1,-9.1781545E-1,-3.8107222E-1,2.5833356E-1,9.1066885E-1,-1.0671194E-1,3.2718617E-1,-1.1774951E0,1.2758176E-1,-7.239674E-2,1.0836302E0,3.1619963E-1,-1.2981687E-1,8.110074E-2,-8.2935405E-1,8.6476207E-1,1.3338904E-1,7.964805E-1,9.986182E-2,-8.063852E-2,1.08997285E-1,-1.11801736E-1,-1.2882356E-1,9.1702476E-2,1.1974001E-1,8.600115E-3,4.8954617E-2,-1.502849E-1,-1.2422619E-1,9.404768E-2,-1.01601E-1,1.2334915E-1,2.0834079E-2,-1.3386653E-1,9.7271256E-2,-1.08459786E-1],"categories":[],"categories_nodes":[],"categories_segments":[],"categories_sizes":[],"default_left":[0,0,0,0,0,0,0,0,0,0,0,0,0,0,0,0,0,0,0,0,0,0,0,0,0,0,0,0,0,0,0,0,0,0,0,0,0,0,0,0,0,0,0,0,0,0,0],"id":32,"left_children":[1,3,5,7,9,11,13,15,-1,17,19,21,23,25,27,29,-1,31,33,-1,-1,35,37,-1,-1,39,41,43,45,-1,-1,-1,-1,-1,-1,-1,-1,-1,-1,-1,-1,-1,-1,-1,-1,-1,-1],"loss_changes":[3.5336838E1,5.6518143E1,2.5672836E1,1.9490751E1,4.442215E1,4.2198895E1,3.1475952E1,1.2749628E1,0E0,4.261251E1,7.8898735E0,2.5391655E1,1.2497115E1,5.2524395E1,3.046226E1,8.146297E0,0E0,2.8563828E1,2.0577759E1,0E0,0E0,1.0350166E1,2.7292377E1,0E0,0E0,5.139314E1,1.8615528E1,4.1120304E1,2.9386578E1,0E0,0E0,0E0,0E0,0E0,0E0,0E0,0E0,0E0,0E0,0E0,0E0,0E0,0E0,0E0,0E0,0E0,0E0],"parents":[2147483647,0,0,1,1,2,2,3,3,4,4,5,5,6,6,7,7,9,9,10,10,11,11,12,12,13,13,14,14,15,15,17,17,18,18,21,21,22,22,25,25,26,26,27,27,28,28],"right_children":[2,4,6,8,10,12,14,16,-1,18,20,22,24,26,28,30,-1,32,34,-1,-1,36,38,-1,-1,40,42,44,46,-1,-1,-1,-1,-1,-1,-1,-1,-1,-1,-1,-1,-1,-1,-1,-1,-1,-1],"split_conditions":[1.7457626E1,9.5E1,2.125E1,2.6960785E-2,1.5173076E1,1.27E1,4.4E1,-4.1865432E-1,-1.07614376E-1,1.4E1,1.0849152E2,1.8E1,1.10936775E1,9.5E0,1.07666664E2,1.3425E2,-1.0671194E-1,2.1242287E0,3.5E1,1.2758176E-1,-7.239674E-2,7.1E0,9.7655174E1,-1.2981687E-1,8.110074E-2,3.065648E1,1.5E1,1.01916664E2,1.64E2,9.986182E-2,-8.063852E-2,1.08997285E-1,-1.11801736E-1,-1.2882356E-1,9.1702476E-2,1.1974001E-1,8.600115E-3,4.8954617E-2,-1.502849E-1,-1.2422619E-1,9.404768E-2,-1.01601E-1,1.2334915E-1,2.0834079E-2,-1.3386653E-1,9.7271256E-2,-1.08459786E-1],"split_indices":[58,105,116,27,13,212,218,26,0,58,11,81,26,175,38,49,0,13,112,0,0,141,10,0,0,52,81,38,42,0,0,0,0,0,0,0,0,0,0,0,0,0,0,0,0,0,0],"split_type":[0,0,0,0,0,0,0,0,0,0,0,0,0,0,0,0,0,0,0,0,0,0,0,0,0,0,0,0,0,0,0,0,0,0,0,0,0,0,0,0,0,0,0,0,0,0,0],"sum_hessian":[9.1220996E2,1.7609628E2,7.3611365E2,5.571523E1,1.2038106E2,1.9072194E2,5.453917E2,5.0284187E1,5.431043E0,1.0642952E2,1.3951535E1,1.7431784E2,1.640409E1,9.176385E1,4.536279E2,4.761158E1,2.6726074E0,2.3805573E1,8.262395E1,1.2300625E1,1.6509097E0,9.1098076E1,8.3219765E1,1.3650081E1,2.754011E0,6.772796E1,2.4035887E1,3.6916476E2,8.446315E1,4.5689713E1,1.9218653E0,1.5742428E1,8.063144E0,7.8840485E1,3.7834666E0,8.159295E1,9.505128E0,7.664659E1,6.5731716E0,5.5157585E1,1.2570374E1,3.6521242E0,2.0383762E1,3.5209576E2,1.706899E1,7.766945E1,6.7936993E0],"tree_param":{"num_deleted":"0","num_feature":"222","num_nodes":"47","size_leaf_vector":"1"}},{"base_weights":[9.899267E-2,-2.6037654E-2,3.647745E-1,2.2007316E-1,-3.1762457E-1,-1.12858415E-1,4.250188E-1,-9.90169E-1,3.0667323E-1,5.536368E-2,-8.906285E-1,-7.817858E-2,6.0763836E-1,8.098537E-2,-1.293259E-1,4.1833732E-1,-3.959006E-1,-1.2237983E-1,2.8902546E-1,-7.345365E-2,-1.2410228E0,-1.2265531E-1,5.360573E-1,6.8895155E-1,-6.165374E-1,4.8505504E-2,-8.638931E-2,-1.3609143E-1,4.7636576E-2,9.990554E-2,-1.9750362E-2,-1.2244147E-1,4.9088933E-2,-1.3818371E-1,8.1322595E-2,1.02349214E-1,-2.1783516E-2,-7.978006E-3,8.162722E-2,-1.252274E-1,8.79375E-2],"categories":[],"categories_nodes":[],"categories_segments":[],"categories_sizes":[],"default_left":[0,0,0,0,0,0,0,0,0,0,0,0,0,0,0,0,0,0,0,0,0,0,0,0,0,0,0,0,0,0,0,0,0,0,0,0,0,0,0,0,0],"id":33,"left_children":[1,3,5,7,9,-1,11,13,15,17,19,21,23,-1,-1,25,27,-1,29,31,33,-1,35,37,39,-1,-1,-1,-1,-1,-1,-1,-1,-1,-1,-1,-1,-1,-1,-1,-1],"loss_changes":[2.8887394E1,4.2548115E1,2.549789E1,3.4008045E1,5.804135E1,0E0,2.467752E1,1.2892288E1,2.3769854E1,4.975969E1,3.0558998E1,5.1625217E1,2.0011673E1,0E0,0E0,2.2669811E1,3.5812714E1,0E0,4.8759186E1,2.2157434E1,2.2777245E1,0E0,1.7778008E1,1.8170815E1,1.3258633E1,0E0,0E0,0E0,0E0,0E0,0E0,0E0,0E0,0E0,0E0,0E0,0E0,0E0,0E0,0E0,0E0],"parents":[2147483647,0,0,1,1,2,2,3,3,4,4,6,6,7,7,8,8,9,9,10,10,11,11,12,12,15,15,16,16,18,18,19,19,20,20,22,22,23,23,24,24],"right_children":[2,4,6,8,10,-1,12,14,16,18,20,22,24,-1,-1,26,28,-1,30,32,34,-1,36,38,40,-1,-1,-1,-1,-1,-1,-1,-1,-1,-1,-1,-1,-1,-1,-1,-1],"split_conditions":[9.921939E1,9.7716835E1,3E-1,-3.693035E-2,1E0,-1.12858415E-1,4.9E1,6E1,2.1383344E-1,1.02E2,8.9E0,1.8983051E1,-4.1865432E-1,8.098537E-2,-1.293259E-1,2.1E1,1.3333333E1,-1.2237983E-1,1E0,2E1,2E0,-1.2265531E-1,2.3E1,2.9E1,1.1E2,4.8505504E-2,-8.638931E-2,-1.3609143E-1,4.7636576E-2,9.990554E-2,-1.9750362E-2,-1.2244147E-1,4.9088933E-2,-1.3818371E-1,8.1322595E-2,1.02349214E-1,-2.1783516E-2,-7.978006E-3,8.162722E-2,-1.252274E-1,8.79375E-2],"split_indices":[9,9,161,7,219,0,218,11,45,11,175,54,26,0,0,50,135,0,220,80,67,0,112,190,104,0,0,0,0,0,0,0,0,0,0,0,0,0,0,0,0],"split_type":[0,0,0,0,0,0,0,0,0,0,0,0,0,0,0,0,0,0,0,0,0,0,0,0,0,0,0,0,0,0,0,0,0,0,0,0,0,0,0,0,0],"sum_hessian":[8.680104E2,5.909262E2,2.7708423E2,3.2058505E2,2.7034113E2,1.0056885E1,2.6702734E2,2.0711174E1,2.9987387E2,1.6429753E2,1.060436E2,7.125642E1,1.9577092E2,2.74383E0,1.7967342E1,2.5909845E2,4.077543E1,2.4721926E1,1.395756E2,3.2187317E1,7.3856285E1,2.44841E1,4.6772316E1,1.8398718E2,1.1783736E1,2.4687463E2,1.2223809E1,1.9092566E1,2.1682863E1,5.6324062E1,8.325154E1,1.0204964E1,2.1982355E1,6.94247E1,4.4315867E0,2.8188938E1,1.858338E1,2.6195913E1,1.5779128E2,8.383685E0,3.4000509E0],"tree_param":{"num_deleted":"0","num_feature":"222","num_nodes":"41","size_leaf_vector":"1"}},{"base_weights":[8.672782E-2,8.151192E-1,3.8721494E-2,9.5071906E-1,-9.261685E-2,-5.0644374E-1,1.21875316E-1,-7.021775E-2,1.0161434E0,-1.1496272E-1,1.8523572E-1,-1.2420175E-1,1.5080258E-1,1.1575093E0,1.8054028E-1,-1.207486E-1,4.9594417E-1,4.6479914E-1,3.087566E-2,1.2887429E-1,8.88757E-2,-9.628185E-2,9.626669E-2,7.1807496E-2,-1.1750805E-1,-7.208874E-2,6.3327365E-2,1.4253895E-2,-8.937088E-2],"categories":[],"categories_nodes":[],"categories_segments":[],"categories_sizes":[],"default_left":[0,0,0,0,0,0,0,0,0,0,0,0,0,0,0,0,0,0,0,0,0,0,0,0,0,0,0,0,0],"id":34,"left_children":[1,3,5,7,-1,9,11,-1,13,-1,15,-1,17,19,21,-1,23,25,27,-1,-1,-1,-1,-1,-1,-1,-1,-1,-1],"loss_changes":[2.93534E1,1.3137657E1,3.5849167E1,5.974945E0,0E0,4.6778812E1,2.7243492E1,0E0,5.3677597E0,0E0,2.279599E1,0E0,2.5306725E1,2.7223969E-1,8.095218E0,0E0,1.6674137E1,3.7565735E1,5.0473312E1,0E0,0E0,0E0,0E0,0E0,0E0,0E0,0E0,0E0,0E0],"parents":[2147483647,0,0,1,1,2,2,3,3,5,5,6,6,8,8,10,10,12,12,13,13,14,14,16,16,17,17,18,18],"right_children":[2,4,6,8,-1,10,12,-1,14,-1,16,-1,18,20,22,-1,24,26,28,-1,-1,-1,-1,-1,-1,-1,-1,-1,-1],"split_conditions":[4.4E-1,9.748572E1,7.6E-1,9.82E1,-9.261685E-2,1.3870574E0,-8.030291E-1,-7.021775E-2,3.1E1,-1.1496272E-1,9.5E1,-1.2420175E-1,7.9E1,2.1E1,3.7536907E0,-1.207486E-1,7E1,1.07E1,1.22E1,1.2887429E-1,8.88757E-2,-9.628185E-2,9.626669E-2,7.1807496E-2,-1.1750805E-1,-7.208874E-2,6.3327365E-2,1.4253895E-2,-8.937088E-2],"split_indices":[131,8,132,61,0,3,35,0,168,0,183,0,182,111,3,0,20,211,211,0,0,0,0,0,0,0,0,0,0],"split_type":[0,0,0,0,0,0,0,0,0,0,0,0,0,0,0,0,0,0,0,0,0,0,0,0,0,0,0,0,0],"sum_hessian":[8.3935315E2,5.0910957E1,7.884422E2,4.7653996E1,3.2569618E0,1.03671364E2,6.847708E2,1.4438412E0,4.6210155E1,5.337582E1,5.0295544E1,1.3350943E1,6.714199E2,3.9194126E1,7.0160294E0,8.647535E0,4.164801E1,1.8477095E2,4.8664896E2,2.3784653E1,1.5409472E1,2.7560487E0,4.2599807E0,3.7264664E1,4.383345E0,2.2579865E1,1.6219109E2,4.3496365E2,5.1685307E1],"tree_param":{"num_deleted":"0","num_feature":"222","num_nodes":"29","size_leaf_vector":"1"}},{"base_weights":[1.0914202E-1,1.8334807E-1,-3.778867E-1,-5.5448395E-1,2.3086885E-1,1.6355872E-1,-1.2508596E-1,-1.3433011E-1,3.5180545E-1,1.7665042E-1,8.528045E-1,7.2846955E-1,-3.011743E-1,8.5863125E-1,-1.14952736E-1,-3.6311358E-1,2.7744E-1,9.879128E-1,-9.7023495E-2,-1.0069877E-1,9.9226874E-1,4.3297926E-1,-1.22409664E-1,1.0201706E-1,-7.049871E-2,5.392092E-2,-9.4116025E-2,-5.4272603E-2,3.3686083E-2,-8.981591E-2,1.0859432E-1,1.1096623E-1,-8.997754E-2,7.459058E-2,-1.0161599E-1],"categories":[],"categories_nodes":[],"categories_segments":[],"categories_sizes":[],"default_left":[0,0,0,0,0,0,0,0,0,0,0,0,0,0,0,0,0,0,0,0,0,0,0,0,0,0,0,0,0,0,0,0,0,0,0],"id":35,"left_children":[1,3,5,7,9,11,-1,-1,13,15,17,19,21,23,-1,25,27,29,-1,-1,31,33,-1,-1,-1,-1,-1,-1,-1,-1,-1,-1,-1,-1,-1],"loss_changes":[3.0235874E1,2.5548672E1,5.25244E1,3.204503E1,2.2841568E1,1.8387217E1,0E0,0E0,1.722797E1,3.4289272E1,1.4361061E1,1.54326935E1,2.6734913E1,4.8943377E0,0E0,5.230917E1,2.6018166E1,1.0433506E1,0E0,0E0,7.1889496E0,1.0860947E1,0E0,0E0,0E0,0E0,0E0,0E0,0E0,0E0,0E0,0E0,0E0,0E0,0E0],"parents":[2147483647,0,0,1,1,2,2,3,3,4,4,5,5,8,8,9,9,10,10,11,11,12,12,13,13,15,15,16,16,17,17,20,20,21,21],"right_children":[2,4,6,8,10,12,-1,-1,14,16,18,20,22,24,-1,26,28,30,-1,-1,32,34,-1,-1,-1,-1,-1,-1,-1,-1,-1,-1,-1,-1,-1],"split_conditions":[1.03E2,7.947662E1,9.4881355E1,4.3E1,7E-1,1.6E1,-1.2508596E-1,-1.3433011E-1,6.7E1,4.4E1,9.6E1,2.0238506E1,3.4E0,7.408475E1,-1.14952736E-1,2.4E1,-6.4928514E-1,9.8125E1,-9.7023495E-2,-1.0069877E-1,3.6282545E-1,8.644444E1,-1.22409664E-1,1.0201706E-1,-7.049871E-2,5.392092E-2,-9.4116025E-2,-5.4272603E-2,3.3686083E-2,-8.981591E-2,1.0859432E-1,1.1096623E-1,-8.997754E-2,7.459058E-2,-1.0161599E-1],"split_indices":[105,19,0,189,57,169,0,0,21,218,182,58,154,11,0,111,56,62,0,0,56,32,0,0,0,0,0,0,0,0,0,0,0,0,0],"split_type":[0,0,0,0,0,0,0,0,0,0,0,0,0,0,0,0,0,0,0,0,0,0,0,0,0,0,0,0,0,0,0,0,0,0,0],"sum_hessian":[8.337037E2,7.2401306E2,1.096906E2,4.316366E1,6.808494E2,6.8202126E1,4.1488472E1,2.281966E1,2.0343998E1,6.2743555E2,5.3413857E1,3.0527102E1,3.7675022E1,1.5529555E1,4.814441E0,9.831598E1,5.2911957E2,5.0154896E1,3.258962E0,3.6562777E0,2.6870825E1,2.1279085E1,1.6395935E1,1.4390422E1,1.1391337E0,3.8416126E1,5.9899857E1,3.51954E1,4.939242E2,2.0747821E0,4.8080112E1,2.5690353E1,1.1804703E0,1.7899214E1,3.3798723E0],"tree_param":{"num_deleted":"0","num_feature":"222","num_nodes":"35","size_leaf_vector":"1"}},{"base_weights":[7.455688E-2,-5.0907988E-2,3.6554563E-1,2.8619516E-1,-2.814701E-1,5.913645E-1,1.08949035E-1,-1.4990602E-1,3.8360712E-1,5.4202896E-1,-4.6381494E-1,-1.20452605E-1,6.51153E-1,-1.7381278E-1,8.1355697E-1,4.778961E-1,-8.436024E-1,1.0667784E0,-5.1622134E-1,-6.839372E-1,3.7441733E-1,7.0848805E-1,-9.6042365E-2,-5.3276914E-1,9.428376E-1,9.5761114E-1,-8.319207E-2,-9.567537E-2,5.693964E-2,8.774416E-2,-1.3762537E-1,-7.587222E-2,1.1533862E-1,-1.2943934E-1,1.13638975E-1,-8.3104745E-2,3.2660645E-2,5.6735363E-2,-1.1363157E-1,7.589783E-2,-1.0420396E-1,6.518797E-2,-1.05111E-1,1.0549414E-1,4.1161843E-2,1.0524E-1,-7.725296E-2],"categories":[],"categories_nodes":[],"categories_segments":[],"categories_sizes":[],"default_left":[0,0,0,0,0,0,0,0,0,0,0,0,0,0,0,0,0,0,0,0,0,0,0,0,0,0,0,0,0,0,0,0,0,0,0,0,0,0,0,0,0,0,0,0,0,0,0],"id":36,"left_children":[1,3,5,7,9,11,13,-1,15,17,19,-1,21,23,25,27,29,31,33,35,37,39,-1,41,43,45,-1,-1,-1,-1,-1,-1,-1,-1,-1,-1,-1,-1,-1,-1,-1,-1,-1,-1,-1,-1,-1],"loss_changes":[2.944377E1,4.3919197E1,1.4012424E1,4.0500854E1,5.0623123E1,1.4634731E1,2.304261E1,0E0,2.5686405E1,3.457695E1,5.103018E1,0E0,1.2275295E1,3.3711433E1,8.641153E0,2.7264858E1,1.5830748E1,7.4028625E0,2.8458656E1,3.272403E1,1.751506E1,1.1551697E1,0E0,3.9576614E1,7.8749275E-1,5.87969E0,0E0,0E0,0E0,0E0,0E0,0E0,0E0,0E0,0E0,0E0,0E0,0E0,0E0,0E0,0E0,0E0,0E0,0E0,0E0,0E0,0E0],"parents":[2147483647,0,0,1,1,2,2,3,3,4,4,5,5,6,6,8,8,9,9,10,10,12,12,13,13,14,14,15,15,16,16,17,17,18,18,19,19,20,20,21,21,23,23,24,24,25,25],"right_children":[2,4,6,8,10,12,14,-1,16,18,20,-1,22,24,26,28,30,32,34,36,38,40,-1,42,44,46,-1,-1,-1,-1,-1,-1,-1,-1,-1,-1,-1,-1,-1,-1,-1,-1,-1,-1,-1,-1,-1],"split_conditions":[1.4053987E0,9.0333336E1,1.10679604E-1,9.4E1,2E1,5.5305084E1,1.0773889E0,-1.4990602E-1,1.25E2,8.4E0,9.275E1,-1.20452605E-1,4.4E0,2.0053191E-1,9.667393E1,9.7E1,7E0,1.8E1,1.07E1,1.47E1,9.5E1,1.7245358E1,-9.6042365E-2,8.75E0,1.35E2,7.35E0,-8.319207E-2,-9.567537E-2,5.693964E-2,8.774416E-2,-1.3762537E-1,-7.587222E-2,1.1533862E-1,-1.2943934E-1,1.13638975E-1,-8.3104745E-2,3.2660645E-2,5.6735363E-2,-1.1363157E-1,7.589783E-2,-1.0420396E-1,6.518797E-2,-1.05111E-1,1.0549414E-1,4.1161843E-2,1.0524E-1,-7.725296E-2],"split_indices":[3,31,15,0,111,10,25,0,49,96,28,0,154,17,2,49,96,111,96,211,182,23,0,177,41,144,0,0,0,0,0,0,0,0,0,0,0,0,0,0,0,0,0,0,0,0,0],"split_type":[0,0,0,0,0,0,0,0,0,0,0,0,0,0,0,0,0,0,0,0,0,0,0,0,0,0,0,0,0,0,0,0,0,0,0,0,0,0,0,0,0,0,0,0,0,0,0],"sum_hessian":[8.0497296E2,5.6303546E2,2.419375E2,2.2858368E2,3.344518E2,1.27992516E2,1.13944984E2,1.1082752E1,2.1750092E2,6.027366E1,2.7417816E2,3.5069344E0,1.2448558E2,8.1851135E1,3.209385E1,2.0254924E2,1.4951684E1,4.0288124E1,1.9985535E1,2.172989E2,5.687925E1,1.2075003E2,3.735547E0,6.2335705E1,1.9515432E1,2.9894735E1,2.1991153E0,1.1576881E1,1.9097235E2,3.3807774E0,1.1570907E1,1.4733233E0,3.88148E1,1.3734889E1,6.2506466E0,1.8984044E2,2.7458467E1,5.099155E1,5.887698E0,1.1791544E2,2.8345873E0,1.8894775E1,4.344093E1,1.5300636E1,4.214797E0,2.8713348E1,1.1813865E0],"tree_param":{"num_deleted":"0","num_feature":"222",